913 32
0 1.0199964 1.1355013 -2.728372 -2.8309605 -2.4544475 4.823976 1.7099346 1.3935068 -2.3101861 -1.2336751 -1.7612584 -1.0386763 -3.5931947 -1.3688332 -1.3679961 0.6276373 2.7359414 -0.17821068 -3.0803127 2.1470115 0.022345563 1.0715158 0.46274146 0.6127688 1.2957627 4.1190743 0.3530227 -0.57688165 1.2404809 4.2678185 -0.9586714 -0.88081473
1 1.0275233 1.0543852 -2.7345033 -2.8140466 -2.6269522 4.7350507 1.5976294 1.4638137 -2.279376 -0.9835894 -1.7954109 -1.1693985 -3.8359509 -1.4040041 -1.394203 0.67262256 2.8069887 -0.2990458 -3.1926308 2.1508324 -0.0015736533 1.0759844 0.41086802 0.6749186 1.3132986 4.360751 0.34127334 -0.49998578 1.2700243 4.2298503 -0.9747223 -0.8508003
2 0.06378823 -0.01944138 -0.1684808 -0.055969052 0.0034279134 0.096210375 -0.0048753945 0.09729454 -0.13516009 -0.061429877 0.2348544 0.033460587 0.09561224 0.050121155 -0.16077107 0.10857433 -0.0019806619 -0.07075177 -0.21766476 0.14590646 0.22977756 -0.12000113 -0.012741316 -0.13369 -0.18655302 0.05377165 -0.21561766 -0.22768648 -0.12433419 0.017696053 0.03760959 -0.04850983
3 0.05640325 -0.023781765 -0.21152659 -0.047032744 0.0042560096 0.115774155 -0.028466579 0.1158304 -0.13999015 -0.048601445 0.25973448 0.0017439334 0.11682122 0.06103472 -0.18295242 0.15513219 0.010560175 -0.07651598 -0.25118247 0.163626 0.2616469 -0.1406027 -0.028709512 -0.1679386 -0.20655471 0.054201037 -0.22662328 -0.24095081 -0.1284674 0.0325921 0.057003416 -0.04282825
4 0.024470216 0.0017483871 -0.12683184 -0.029826773 -0.019776653 0.06349669 -0.012377523 0.08810471 -0.062654346 -0.00092617027 0.14820391 -0.00074532616 0.086139746 0.041926507 -0.119202316 0.105676375 -0.0030560116 -0.046773206 -0.16449232 0.0821858 0.1686883 -0.09050154 -0.048305675 -0.09744683 -0.1470002 0.048464466 -0.13459629 -0.1684267 -0.08363438 0.001390125 0.012401639 -0.033964317
5 0.055849887 -0.02926313 -0.17711157 -0.05344651 0.0061379396 0.081529394 -0.026586479 0.10247193 -0.0784156 -0.026452629 0.19684476 -0.011467686 0.102234915 0.046932645 -0.16040671 0.13738394 -0.011009877 -0.061186027 -0.21910413 0.12175047 0.23798934 -0.121016294 -0.044847112 -0.14316943 -0.19072442 0.044391546 -0.21385008 -0.21696241 -0.096670635 0.032923955 0.029132467 -0.041967355
6 0.05619893 -0.018526575 -0.17397876 -0.05986368 0.012350866 0.08745486 -0.02462834 0.10661109 -0.113121584 -0.034897145 0.2084139 -0.022378739 0.07888965 0.051637795 -0.17026684 0.12443434 0.0074085263 -0.08286378 -0.2202534 0.114614986 0.21731183 -0.13002142 -0.03750714 -0.15018338 -0.186481 0.0427173 -0.19889572 -0.22224148 -0.09533598 0.018503526 0.040702194 -0.025673784
7 0.065382116 -0.02277331 -0.18912078 -0.054045647 -0.011481769 0.08627171 -0.011307566 0.11879945 -0.11640498 -0.019103335 0.24341948 -0.024829794 0.11060845 0.033016138 -0.17127848 0.14788294 0.0014479415 -0.073742606 -0.24930038 0.14455001 0.2567685 -0.15113835 -0.04323698 -0.15682389 -0.20758235 0.059920035 -0.21322374 -0.25897387 -0.09383567 0.029781913 0.047804557 -0.05191492
8 0.052488375 -0.012943102 -0.1279077 -0.021237774 -0.0048552374 0.072404645 -0.011885554 0.08810951 -0.09324553 -0.011656573 0.16250145 -0.010495632 0.06799868 0.023561502 -0.10946299 0.0919322 0.023510356 -0.07428545 -0.19200574 0.09958262 0.17382394 -0.10510074 -0.04216536 -0.085310645 -0.13745178 0.06407873 -0.13832596 -0.17385142 -0.0481557 0.013749963 0.027738083 -0.040497787
9 0.06490706 0.003306889 -0.19725168 -0.034307446 0.003986236 0.105238415 -0.011526316 0.09185437 -0.12322193 -0.044668455 0.23166098 -0.021771034 0.11055912 0.057023745 -0.15693493 0.1350852 -0.015137595 -0.08298403 -0.22366452 0.12884553 0.2242695 -0.13880809 -0.036169223 -0.15797344 -0.20700023 0.052688867 -0.21612339 -0.2295428 -0.109092265 0.018813869 0.02643445 -0.05719916
10 0.028246706 -0.032058198 -0.16408871 -0.03908466 0.0027380744 0.07845697 -0.01661547 0.11610246 -0.11739454 -0.04802137 0.20517747 -0.0035378675 0.10405979 0.042374324 -0.1587414 0.11662578 -0.017906578 -0.07422522 -0.2188582 0.14620884 0.24460085 -0.1315377 -0.017794173 -0.13652539 -0.19170082 0.06453028 -0.22555539 -0.21755622 -0.10749693 0.035750885 0.030836241 -0.020779032
11 0.051615696 -0.019828249 -0.12379782 -0.026490951 -0.0037063954 0.08115914 0.002018966 0.10335179 -0.10728322 -0.042039253 0.18369383 0.019716403 0.07463755 0.05025591 -0.14455937 0.11220924 -0.0066599497 -0.038926743 -0.1779144 0.10020393 0.20798127 -0.10204795 -0.03667194 -0.12747048 -0.15829784 0.032122746 -0.17059898 -0.1842538 -0.08821798 0.016707331 0.030197952 -0.01643367
12 0.050773993 0.0016159699 -0.16520457 -0.03499476 -0.00092699466 0.08751698 -0.031972807 0.082352735 -0.08653757 -0.040224236 0.22113658 -0.011415624 0.11443369 0.043107104 -0.14740638 0.12705253 0.006095002 -0.056504004 -0.23669603 0.11456419 0.23803584 -0.11916072 -0.045686036 -0.13953826 -0.1995993 0.049167316 -0.21539077 -0.23190443 -0.10427367 0.02332543 0.021267906 -0.052026678
13 0.052554183 -0.010262664 -0.16849503 -0.03299671 -0.016164428 0.09311147 -0.0022471417 0.11604371 -0.102729976 -0.014262382 0.19346434 -0.0058399616 0.085525 0.04786409 -0.14003402 0.11945228 0.0014179928 -0.06911092 -0.22608551 0.11398284 0.2203118 -0.12500103 -0.036302328 -0.13322888 -0.16811754 0.062022083 -0.19277735 -0.22327258 -0.089028604 0.033607535 0.029257335 -0.040720303
14 0.03750226 -0.014382517 -0.16249485 -0.05133715 0.012957665 0.0945617 -0.02200104 0.08509936 -0.12078911 -0.02823041 0.19412485 -0.0006201032 0.08798342 0.049684443 -0.14349267 0.1292696 0.004728585 -0.058143787 -0.20994523 0.12448757 0.22571649 -0.11073229 -0.025037909 -0.14933746 -0.1900458 0.045974456 -0.19532868 -0.20957316 -0.096912585 0.022468312 0.01965014 -0.04096115
15 0.05665336 -0.002791273 -0.15491201 -0.053863026 -0.018948682 0.11728184 -0.009579646 0.104920074 -0.12578687 -0.038828276 0.22028342 0.0019832863 0.11057841 0.03267119 -0.15714493 0.14821608 -0.018552985 -0.04912277 -0.19334733 0.116340876 0.20632775 -0.12517865 -0.031909976 -0.112463735 -0.18288301 0.04114226 -0.1946863 -0.19134341 -0.1278328 -0.0117783 0.033132743 -0.06196616
16 0.024616158 -0.019835804 -0.16254257 -0.044493344 -0.0030356487 0.06720784 -0.03070093 0.09647141 -0.072732635 -0.014067396 0.19830857 -0.011134595 0.100194484 0.03134842 -0.14319491 0.1001892 0.0020426926 -0.073279046 -0.20620468 0.10238593 0.20505518 -0.13322619 -0.030646011 -0.11697982 -0.18019491 0.04048227 -0.1992684 -0.2096964 -0.070620194 0.004903495 0.016234888 -0.04244344
17 0.040322855 -0.0060175294 -0.1945824 -0.04193317 -0.011869217 0.07677193 -0.01986185 0.095709726 -0.10898492 -0.010766107 0.21281934 -0.0054584774 0.100236855 0.045313857 -0.17712939 0.13561296 -0.010213304 -0.08716088 -0.23378558 0.11574074 0.21207109 -0.12258129 -0.022048991 -0.14909238 -0.1832478 0.061356682 -0.2097665 -0.23337118 -0.09936859 0.013557376 0.022591755 -0.033064187
18 0.045925308 0.005017443 -0.1400263 -0.052750763 -0.0068450007 0.081421375 -0.014231564 0.07667386 -0.09054236 -0.037146688 0.17673041 -0.015023787 0.09863403 0.05155946 -0.14234264 0.096854016 0.014016559 -0.069336586 -0.19496714 0.11634545 0.19017573 -0.1164278 -0.039409447 -0.12732907 -0.14913638 0.03815806 -0.16592419 -0.17733967 -0.08781307 0.0024330413 0.04344252 -0.039220076
19 0.032360308 -0.03139289 -0.18519534 -0.054592494 0.0073176012 0.08150588 -0.017069364 0.09967691 -0.11588474 -0.03451792 0.21572818 -0.001016298 0.094190225 0.06764796 -0.147584 0.12637636 -0.009544088 -0.054484017 -0.21450153 0.1404564 0.2361582 -0.14139523 -0.02699024 -0.14025754 -0.21044844 0.041926686 -0.21029235 -0.24090321 -0.09012898 0.019674145 0.048629373 -0.03728304
20 0.03260642 -0.03628891 -0.18414563 -0.061379835 -0.013142238 0.083004154 -0.020356534 0.098450355 -0.09058675 -0.0019238598 0.18790717 -0.034978118 0.086729154 0.041737285 -0.17332883 0.124657914 0.017850567 -0.09023207 -0.24785005 0.1178351 0.22807266 -0.12380006 -0.02873784 -0.13312493 -0.18944441 0.056333635 -0.21998152 -0.22857736 -0.06070684 0.016963812 0.029928375 -0.041521225
21 0.032020576 -0.016159423 -0.16150568 -0.04842627 -0.0033233294 0.080810875 -0.006506817 0.08924667 -0.11325069 -0.03477124 0.2139903 -0.008297469 0.106494024 0.029317973 -0.14783698 0.12919523 -0.012492572 -0.06335687 -0.22632326 0.13386276 0.22023025 -0.11695709 -0.03145993 -0.13917014 -0.18078177 0.037668217 -0.19754986 -0.19995266 -0.10460526 0.02124573 0.03575621 -0.049999487
22 0.043006744 -0.010593075 -0.18009675 -0.041774847 -0.015403726 0.095014654 -0.025305567 0.09065395 -0.092626475 -0.039949402 0.21020758 -0.015348861 0.11474497 0.036403637 -0.13941255 0.13226834 -0.01067864 -0.056242455 -0.200891 0.13286486 0.21852024 -0.11290479 -0.035870194 -0.12230241 -0.1940145 0.035075147 -0.2064729 -0.20121826 -0.11182218 -0.0033246917 0.022423577 -0.054427322
23 0.060738586 -0.01635225 -0.20392492 -0.061507676 -0.0041606175 0.10720933 -0.010670202 0.10271135 -0.11708811 -0.04117755 0.24323499 -0.013647542 0.11376423 0.03531064 -0.16608202 0.15612371 0.017467486 -0.09323778 -0.25085735 0.14314173 0.25489882 -0.12927096 -0.0609818 -0.16169915 -0.21460298 0.06952159 -0.22423467 -0.24757496 -0.111255944 0.025240226 0.02997701 -0.05496595
24 0.046469335 -0.023466596 -0.19478355 -0.06656452 -0.012026981 0.1050946 -0.002345644 0.12268679 -0.14114955 -0.064095095 0.24118525 0.00991559 0.12536873 0.057402994 -0.19351001 0.15355922 -0.01623386 -0.08387292 -0.24473512 0.13569519 0.24542044 -0.12768732 -0.04349509 -0.14798856 -0.19341655 0.04297941 -0.22797832 -0.25375384 -0.12122024 0.017821347 0.058357123 -0.042645887
25 0.035696287 -0.02879429 -0.18614815 -0.05916179 -0.0047067637 0.101601236 -0.023492506 0.10279939 -0.12759873 -0.030457916 0.24016358 0.009199492 0.12225852 0.05358537 -0.17893685 0.13572629 0.0058646044 -0.063282676 -0.24569975 0.13632682 0.26602247 -0.13108532 -0.040139064 -0.16912152 -0.2142949 0.061978705 -0.24362281 -0.24078456 -0.09815472 0.0088452 0.032329686 -0.04054778
26 0.0598412 -0.023848787 -0.16398802 -0.046262506 -0.0036313697 0.08415691 -0.010843943 0.094317146 -0.08462442 -0.0054443697 0.17160128 -0.008245084 0.08686994 0.038994938 -0.14392243 0.107881516 0.008063247 -0.07437215 -0.20156026 0.102525726 0.19958366 -0.11783654 -0.03750612 -0.12364496 -0.18009801 0.043693937 -0.16303532 -0.19866717 -0.07551314 0.01440678 0.023149198 -0.048098184
27 0.0540947 -0.01748609 -0.16733912 -0.037669998 -0.010721271 0.08846961 -0.023988876 0.102664255 -0.10484401 -0.035643164 0.18804626 -0.007604595 0.08822027 0.032143652 -0.15375607 0.096711636 -0.015501602 -0.07413545 -0.20592831 0.12275566 0.2020438 -0.13398723 -0.03520343 -0.117512055 -0.17389761 0.04723662 -0.1975673 -0.21347764 -0.09239706 0.011576031 0.0461401 -0.032009594
28 0.033403937 -0.010835383 -0.11640291 -0.03666909 -0.023242472 0.065377586 -0.0062434752 0.06368182 -0.060177784 -0.011233809 0.15871277 -0.020770885 0.09816703 0.035347912 -0.13004485 0.08177538 0.011044372 -0.042086575 -0.18354261 0.09605525 0.17347664 -0.10499695 -0.029370748 -0.10389798 -0.15774764 0.046355523 -0.16051091 -0.16520283 -0.06335884 -0.0071122125 0.013373922 -0.023347894
29 0.049091678 -0.042145435 -0.14693359 -0.027580936 -0.006892728 0.0742124 -0.020378465 0.08713617 -0.10762871 -0.014998574 0.19070825 -0.017233597 0.058040738 0.041704368 -0.15372705 0.10908269 0.008313334 -0.07804849 -0.22399972 0.10898518 0.20559055 -0.10636486 -0.02056774 -0.14848645 -0.17794062 0.060054623 -0.21241505 -0.22058153 -0.090401694 0.033126235 0.017906697 -0.016180795
30 0.039127696 -0.0003840714 -0.14427443 -0.03391841 -0.014645128 0.074797906 -0.009812789 0.07893199 -0.06270059 0.0023771147 0.1434391 -0.029710412 0.07985898 0.027281614 -0.1382609 0.105399504 -0.0004855394 -0.06438571 -0.19924612 0.1091674 0.16616735 -0.1168671 -0.04071433 -0.1054915 -0.15751119 0.06592803 -0.15949184 -0.17864224 -0.049419172 0.007035669 0.0066968356 -0.037607506
31 0.05281269 0.0011167064 -0.13225886 -0.04046069 -0.0042241937 0.07766027 -0.030611254 0.08451191 -0.08370619 0.0015751855 0.16160852 0.0016553875 0.07168229 0.03370057 -0.13378324 0.093465425 -0.009420959 -0.048260607 -0.1703664 0.10153294 0.16528408 -0.11203777 -0.037184924 -0.117108636 -0.14333028 0.060459163 -0.1606308 -0.15620252 -0.08461737 0.003499244 0.016590526 -0.03116591
32 0.038760964 0.009536873 -0.13649161 -0.057342242 -0.018539857 0.08224934 -0.010709472 0.069071844 -0.09525855 -0.026543608 0.1620786 0.0018480343 0.08616664 0.025843086 -0.115991175 0.10961126 0.01585378 -0.05844738 -0.18119515 0.10838775 0.16517588 -0.09194394 -0.040763233 -0.1151904 -0.13834715 0.053106133 -0.16145179 -0.18224499 -0.09803225 -0.0065489914 0.032267693 -0.06273095
33 0.043458268 -0.03014042 -0.16110384 -0.035621457 -0.0054060267 0.07200565 -0.013715912 0.07685602 -0.08511942 -0.016486999 0.15254375 -0.016225483 0.061162576 0.032371163 -0.13169001 0.097196974 0.00043744058 -0.07286723 -0.19416831 0.098361775 0.16816252 -0.09694016 -0.030056491 -0.10244344 -0.15380308 0.04351461 -0.17398934 -0.192037 -0.068537295 0.003432367 0.03298911 -0.023972219
34 0.046871487 -0.006050274 -0.15470833 -0.04211668 -0.021351585 0.089335404 -0.037744552 0.086057365 -0.07532163 -0.008389412 0.19667755 -0.011044055 0.11249407 0.027662039 -0.15967058 0.14513025 0.03043681 -0.0811307 -0.24093787 0.12135186 0.22395198 -0.12876897 -0.06821733 -0.12931763 -0.19000277 0.06294062 -0.18406987 -0.19868661 -0.08626053 -0.002756437 0.0382386 -0.05903469
35 0.051937968 -0.018047705 -0.17142528 -0.050946258 -0.015314772 0.099955745 -0.018904993 0.10410587 -0.098978445 -0.026858183 0.1991518 -0.002704982 0.06562611 0.047506295 -0.1499828 0.10245914 -0.009834105 -0.05582676 -0.2206255 0.13372186 0.19038984 -0.100620955 -0.03673801 -0.12974228 -0.1799086 0.041412953 -0.20134118 -0.20589924 -0.09441994 0.019209566 0.017370649 -0.031725552
36 0.06315805 0.0075118523 -0.17236277 -0.05478744 -0.01823602 0.113680795 -0.01652426 0.1036879 -0.12183806 -0.02473736 0.18625812 -0.028625142 0.09674411 0.020729749 -0.17077109 0.11862945 0.01586127 -0.058238503 -0.20809421 0.114854805 0.21404885 -0.11859468 -0.026707279 -0.12474446 -0.17472818 0.07804061 -0.19812408 -0.20620245 -0.10489219 0.029919427 0.049258456 -0.04426405
37 0.0469242 -0.033083256 -0.14736985 -0.051626958 -0.018947667 0.07024775 -0.024685556 0.10005103 -0.08336986 -0.02171981 0.1772424 -0.029700816 0.08867709 0.044197954 -0.14160757 0.12835068 -0.006217965 -0.076783136 -0.2256069 0.11010362 0.20192339 -0.1278226 -0.037720412 -0.12450361 -0.17788522 0.066740505 -0.18743587 -0.19307904 -0.06399046 0.022087611 0.023259211 -0.03464746
38 0.049787566 -0.008734323 -0.16398576 -0.042557374 -0.026580907 0.10889316 -0.017121209 0.0925864 -0.12092649 -0.051678844 0.2253582 -0.0027931954 0.11904006 0.04110416 -0.17895854 0.15498336 0.0015841218 -0.05266326 -0.2099591 0.1291302 0.23604228 -0.1439679 -0.059943307 -0.1317772 -0.19734623 0.0485789 -0.21085194 -0.2411493 -0.10563382 0.009963903 0.0486877 -0.0619284
39 0.039730623 -0.0018075394 -0.177808 -0.059191927 -0.005761667 0.09013559 -0.005431548 0.09956227 -0.104586765 -0.018704377 0.18364868 -0.006274782 0.098742574 0.03230121 -0.158399 0.10564605 0.015628548 -0.069226086 -0.22868861 0.12992933 0.21727045 -0.108255036 -0.030646512 -0.1264995 -0.19379891 0.04746481 -0.18744144 -0.21951847 -0.07430034 0.027009012 0.034823183 -0.025385862
40 0.029995138 0.004664318 -0.15739235 -0.031860158 -0.025851883 0.09853461 -0.029185237 0.09198664 -0.08335613 -0.016358973 0.19379182 -0.010580505 0.10159195 0.026052661 -0.16249959 0.10954656 0.008562772 -0.079035304 -0.19562116 0.12629832 0.19796671 -0.118616164 -0.05772654 -0.1336803 -0.16692032 0.038933683 -0.1885447 -0.1939497 -0.08100258 0.008136174 0.022926506 -0.045008074
41 0.034878988 0.001864509 -0.14499013 -0.040386505 -0.01916451 0.10489382 -0.022283027 0.089874566 -0.08004871 -0.047171704 0.2006954 -0.008966523 0.116811916 0.049692716 -0.15451247 0.1290194 0.0020252184 -0.06422822 -0.19290373 0.10584528 0.21881174 -0.11797929 -0.04256037 -0.12102218 -0.17283928 0.03809615 -0.17523716 -0.21265396 -0.07619959 0.0027573023 0.04567255 -0.06409257
42 0.04075746 -0.012910874 -0.14258383 -0.037133936 0.006326576 0.07663317 -0.009438945 0.07815738 -0.07289925 -0.0057952907 0.16251993 -0.017022599 0.0744446 0.04909696 -0.12305386 0.08880062 -0.01771574 -0.05081728 -0.17589016 0.10380086 0.16777273 -0.10617607 -0.013656264 -0.10981165 -0.15735255 0.06229711 -0.18225825 -0.16799548 -0.049193453 0.010033978 0.030224578 -0.010687692
43 0.038298924 -0.030034043 -0.14566308 -0.043262232 0.009579538 0.064696066 -0.022513915 0.07099321 -0.083253555 -0.037650656 0.19659135 -0.011210172 0.078324154 0.041739997 -0.12506281 0.08889048 0.009917022 -0.0683023 -0.18784085 0.11546744 0.18571548 -0.09407692 -0.02768009 -0.13116814 -0.16071291 0.04085632 -0.18596338 -0.20538399 -0.080220364 0.030177616 0.037617587 -0.032990012
44 0.034192756 -0.028112194 -0.15828218 -0.055884518 0.014370637 0.10460447 -0.024910552 0.10489569 -0.11068223 -0.03403459 0.20668243 0.0026128043 0.09616031 0.057540175 -0.15853457 0.12244739 0.0127305575 -0.08147773 -0.21876414 0.13431099 0.20615125 -0.12555665 -0.031354424 -0.12843291 -0.18044002 0.062661186 -0.20468846 -0.21765497 -0.115992256 0.033540387 0.031634863 -0.028977541
45 0.050845604 -0.010567705 -0.16464877 -0.050486535 -0.026585298 0.11955908 -0.009595419 0.106493846 -0.11608584 -0.04639995 0.21522652 0.009580262 0.114642955 0.04603259 -0.16114405 0.120833874 0.014993234 -0.0708604 -0.23451187 0.13600163 0.22678311 -0.1301792 -0.029969795 -0.12926254 -0.18377657 0.061850745 -0.19065936 -0.2233529 -0.104251556 -0.00021533236 0.03951301 -0.04314799
46 0.053659234 -0.007726461 -0.1466638 -0.050460033 -0.015640303 0.07324098 -0.023915274 0.08845622 -0.06613769 -0.023247123 0.19039837 -0.0079771355 0.09187101 0.04762125 -0.1391037 0.13495095 0.007722962 -0.05422802 -0.20214033 0.100482404 0.19314124 -0.12117847 -0.055072267 -0.13183162 -0.18952581 0.056519803 -0.1701885 -0.18317351 -0.07084062 0.017057251 0.010323639 -0.059173174
47 0.032414515 -0.041403916 -0.19260317 -0.04255418 0.0011712639 0.09818165 -0.0029695379 0.09960626 -0.11079745 -0.036444224 0.2041541 -0.010543716 0.06864054 0.031883992 -0.1439092 0.119461335 0.014387201 -0.06110359 -0.23187508 0.1210001 0.22773059 -0.11229528 -0.041294843 -0.1377594 -0.19660634 0.06325169 -0.22686791 -0.23065875 -0.07994321 0.026715653 0.02318772 -0.042461216
48 0.04742346 -0.020800995 -0.18819082 -0.06523567 -0.028426034 0.116659395 -0.03568713 0.10185286 -0.09134665 -0.026640553 0.23859635 -0.027266104 0.11964524 0.058606517 -0.17267914 0.15660997 0.011628529 -0.071459375 -0.25269306 0.13438037 0.2480483 -0.13410547 -0.04954337 -0.14044158 -0.21985097 0.07644069 -0.2176692 -0.23183931 -0.08887014 0.0053291847 0.018109877 -0.04408002
49 0.020734187 -0.0035182869 -0.13586935 -0.022038808 -0.007969119 0.069780745 -0.029259045 0.074639164 -0.0666004 -0.010633761 0.16331021 -0.029791951 0.0719414 0.023774229 -0.14178981 0.094135985 0.0023262198 -0.06460724 -0.20476505 0.1017829 0.19022691 -0.11002671 -0.030300757 -0.11879124 -0.16340384 0.04855972 -0.182225 -0.18326625 -0.07905539 0.022643657 0.037247814 -0.025266444
50 0.051705476 -0.008228533 -0.19060427 -0.050698806 0.00479094 0.10123991 -0.020794068 0.10126021 -0.10738551 -0.031128034 0.23032019 -0.009756133 0.14247398 0.05276981 -0.18511207 0.15798558 0.006834374 -0.06909533 -0.2367103 0.13681962 0.23942156 -0.13908605 -0.06117191 -0.14929157 -0.2018608 0.059441693 -0.18771036 -0.22117451 -0.09934202 0.018393567 0.043220505 -0.06905716
51 0.039170552 -0.02073199 -0.16536388 -0.026640745 -0.009325055 0.07276583 -0.023933798 0.107447065 -0.09267499 -0.013862124 0.20872247 -0.025707591 0.10768438 0.03605942 -0.17015292 0.11796183 -0.0019423601 -0.07866298 -0.23901463 0.12357185 0.22585152 -0.12513514 -0.0437991 -0.15113384 -0.18678902 0.057992455 -0.20903423 -0.21110418 -0.08702137 0.025239434 0.026836017 -0.048679687
52 0.038856428 0.0037332359 -0.12169896 -0.025776569 0.003777834 0.06657231 0.0032228024 0.0667651 -0.0801628 -0.041467935 0.15916568 0.01594182 0.067782365 0.03155981 -0.11158645 0.09052006 -0.018003233 -0.049036164 -0.14867538 0.08623145 0.16764742 -0.092198275 -0.035886742 -0.09892983 -0.1377729 0.044933163 -0.15888248 -0.16015403 -0.07550466 -0.0031577314 0.028513417 -0.024318136
53 0.050017186 -0.011140122 -0.14217235 -0.054018576 -0.013399588 0.10668314 -0.01683367 0.09444495 -0.1079682 -0.027473811 0.19481832 -0.0055235084 0.08802098 0.041290935 -0.1481593 0.122399665 0.0032322695 -0.044384453 -0.21024549 0.11398717 0.20185277 -0.10300782 -0.02090442 -0.13515311 -0.16569795 0.036028147 -0.2002294 -0.22327964 -0.121052615 0.0031834743 0.046154846 -0.03916171
54 0.05381037 -0.008092834 -0.17530745 -0.039193302 -0.003598787 0.111484624 -0.017870428 0.09497881 -0.09717146 -0.0489102 0.20277682 0.0067347735 0.1141344 0.034259576 -0.16579373 0.11708203 -0.0021369827 -0.05959051 -0.22315703 0.11012356 0.2335396 -0.106446296 -0.04672368 -0.14946629 -0.18800351 0.046535037 -0.19840635 -0.20270917 -0.09806931 0.008469738 0.046039738 -0.039921816
55 0.03407398 -0.025138665 -0.16045971 -0.03585605 0.0121907005 0.087067 -0.0010971945 0.1131325 -0.0846946 -0.021722468 0.19474262 -0.0014595814 0.09207212 0.043739095 -0.15977928 0.11943847 -0.021233082 -0.070564725 -0.2384571 0.12406642 0.20898959 -0.12218654 -0.043756098 -0.13666433 -0.18065725 0.055077475 -0.19769049 -0.23350565 -0.08587152 0.005710059 0.03481542 -0.045364335
56 0.038733106 -0.030257488 -0.1784332 -0.055651728 -0.023140676 0.08725588 -0.02888197 0.099220894 -0.09214459 -0.009607744 0.21320722 -0.024170272 0.059533726 0.046861667 -0.15974206 0.12857907 0.013907272 -0.068996534 -0.22554791 0.118126914 0.20122111 -0.13356785 -0.030428959 -0.123805955 -0.16754627 0.07272903 -0.20495868 -0.22120449 -0.0723093 0.03663016 0.030417651 -0.02688825
57 0.044135958 0.00023490337 -0.17382364 -0.041603055 -0.0036891117 0.10359085 -0.032349035 0.09453942 -0.08021453 -0.019363577 0.2080649 -0.012517396 0.11071225 0.055387873 -0.1830936 0.14714846 0.0110063 -0.060033645 -0.23165265 0.13227995 0.2279074 -0.13563336 -0.040877286 -0.13382316 -0.21530142 0.071799256 -0.19585177 -0.23552033 -0.078260474 0.010372522 0.03178495 -0.06057624
58 0.061548986 0.0035461166 -0.17470416 -0.04294907 -0.014060045 0.10209777 -0.008043618 0.08393163 -0.1103012 -0.043676157 0.20611244 0.021041289 0.12717733 0.061054427 -0.16804272 0.13379557 -0.010777661 -0.053791456 -0.19967388 0.12939708 0.21399988 -0.10863888 -0.03990276 -0.14251517 -0.18517616 0.040461224 -0.20087758 -0.20731291 -0.1160577 -0.000573611 0.022777444 -0.057246637
59 0.05415094 -0.018031567 -0.16220386 -0.05543973 -0.018276962 0.10635002 -0.017464207 0.116397634 -0.0997986 -0.016266316 0.20470777 -0.0151066575 0.09224455 0.05458464 -0.1708895 0.12160393 -0.010050862 -0.07196916 -0.22268961 0.12922886 0.23117067 -0.13007359 -0.022375103 -0.13741027 -0.17979068 0.06579726 -0.21567667 -0.22731069 -0.11163543 0.03261193 0.034569968 -0.036313694
60 0.028031291 -0.014897346 -0.16723704 -0.041855063 -0.010926363 0.09370453 -0.0064814975 0.08620358 -0.108957395 -0.025241736 0.20128973 -0.025021238 0.106050216 0.035617534 -0.14591551 0.11223411 -0.0019036201 -0.069232106 -0.21744747 0.12867081 0.21023011 -0.117805295 -0.0432933 -0.13997656 -0.17267755 0.03774633 -0.21168146 -0.21674234 -0.09910231 0.020960793 0.04991366 -0.027932948
61 0.054633297 -0.006979154 -0.15784748 -0.040598895 -0.013023331 0.08109241 -0.001446308 0.08978407 -0.076869875 -0.033287562 0.1716866 -0.03151481 0.0851942 0.02530103 -0.15132487 0.10272423 -0.00746125 -0.06681653 -0.1838589 0.11533788 0.18247704 -0.09277164 -0.045133296 -0.12425274 -0.15295248 0.06031703 -0.16494936 -0.18296394 -0.071034566 0.029456202 0.029971628 -0.0328378
62 0.045037027 -0.010232273 -0.16899355 -0.028754892 0.008004136 0.07622261 -0.023250543 0.081009716 -0.096830785 -0.034999926 0.20928258 -0.019531405 0.093423046 0.049139924 -0.13549566 0.09578166 0.00016376603 -0.057277426 -0.22200191 0.115353815 0.20791118 -0.114430435 -0.02150164 -0.1259766 -0.18146907 0.06209169 -0.18759984 -0.2106759 -0.093335204 0.020832764 0.037127376 -0.02388558
63 0.050479706 -0.019649666 -0.1281248 -0.02903604 0.0029405649 0.054510966 -0.013963256 0.084219106 -0.06866344 -0.01544979 0.14970738 -0.015696269 0.059896328 0.032224935 -0.12141189 0.094599366 -0.018297458 -0.035564184 -0.17179663 0.09885237 0.15362112 -0.08045189 -0.03754963 -0.116010636 -0.11912405 0.026078774 -0.15273577 -0.16155219 -0.07237765 -0.002843553 0.01664591 -0.03643417
64 0.0466552 -0.0065752515 -0.161133 -0.060779743 -0.006573241 0.09163982 -0.0132857775 0.08643286 -0.09299173 -0.03569318 0.19726165 -0.018263841 0.120317444 0.035427578 -0.15083253 0.14535892 0.011559051 -0.06475312 -0.22932199 0.13968237 0.22251844 -0.11969716 -0.042598207 -0.14767605 -0.2025577 0.05578341 -0.19913304 -0.22933751 -0.083989084 0.0074351826 0.029928321 -0.05425898
65 0.036690034 -0.029803086 -0.18195423 -0.052145414 0.007441324 0.09355296 -0.022052083 0.083810054 -0.07829984 -0.026351698 0.21886592 -0.036037352 0.11584694 0.0474356 -0.14187689 0.11828245 0.024760673 -0.06859081 -0.24803267 0.12262586 0.23314716 -0.14136168 -0.0330059 -0.13180418 -0.2029077 0.0443741 -0.1997906 -0.21610758 -0.068947606 0.029565865 0.038149796 -0.03294545
66 0.033259828 -0.035590433 -0.18128759 -0.053766657 0.018401245 0.075983934 -0.036167886 0.11435341 -0.095111184 -0.009223542 0.22951314 -0.032915086 0.07019398 0.06390726 -0.1604931 0.12619175 -0.007495437 -0.08564067 -0.26423472 0.146609 0.22043565 -0.14263059 -0.014803041 -0.16374655 -0.21217833 0.06762829 -0.23930685 -0.2533851 -0.089354485 0.02156805 0.0244683 -0.008018954
67 0.056925893 -0.009792758 -0.13513891 -0.027775034 0.0029022968 0.06697358 -0.017464831 0.08976024 -0.07826446 -0.012727582 0.18099935 -0.031105328 0.10196529 0.04347281 -0.15339375 0.13340428 0.023381868 -0.0573481 -0.21738656 0.09365324 0.19190305 -0.109433666 -0.04549952 -0.11323833 -0.1591993 0.050211817 -0.18580173 -0.17310382 -0.0909114 0.017677367 0.029625569 -0.055912945
68 0.043468427 -0.018354837 -0.13260609 -0.04181849 -0.010179812 0.07647753 -0.020005401 0.08631947 -0.08360803 -0.02377313 0.16322246 0.0076653995 0.09279332 0.03601667 -0.13844174 0.10555256 -0.012174459 -0.05357486 -0.1823927 0.1050756 0.2036995 -0.09482738 -0.022760203 -0.13335682 -0.1500723 0.03091395 -0.15742274 -0.18665195 -0.08729573 0.01701962 0.036554884 -0.015074322
69 0.06187721 -0.02630293 -0.19100486 -0.06627212 -0.015783796 0.09188299 -0.022242166 0.12346756 -0.12265967 -0.009806399 0.22044107 -0.026298668 0.10509196 0.036317416 -0.1655688 0.13766386 0.005189059 -0.08990894 -0.23905808 0.14105178 0.22374935 -0.14723773 -0.036593936 -0.15404917 -0.21168832 0.076077126 -0.21884415 -0.23786463 -0.12503135 0.01561729 0.04014845 -0.030563204
70 0.027400207 -0.017594803 -0.14119513 -0.044165876 -0.005186103 0.07977295 -9.34356e-05 0.089806266 -0.09435159 -0.018126259 0.16409296 -0.0019373755 0.05996657 0.023896025 -0.13290909 0.10460302 -0.0056060054 -0.05924181 -0.18164629 0.10856888 0.16875081 -0.08906006 -0.029518586 -0.12195687 -0.1635023 0.05523627 -0.14867747 -0.16607538 -0.070150405 0.024124661 0.031473808 -0.03942254
71 0.057967678 0.013341863 -0.21033719 -0.08200588 -0.020953799 0.1447357 -0.014976262 0.13788766 -0.104607634 -0.011930338 0.25349316 -0.014287511 0.14576815 0.060174033 -0.20539439 0.17931995 0.020380821 -0.1022765 -0.27755025 0.15837124 0.2857636 -0.17590676 -0.07866822 -0.17011376 -0.24655047 0.08834981 -0.22336695 -0.26299864 -0.11499218 0.022141915 0.04729644 -0.06285523
72 0.03924489 -0.0160984 -0.20783968 -0.054818932 0.003852818 0.09579005 -0.03736064 0.11037417 -0.11293072 -0.0380073 0.23862392 -0.00253471 0.12015009 0.043738116 -0.1781051 0.14862117 0.0034971817 -0.08489642 -0.26294658 0.13430841 0.27998778 -0.14466636 -0.06289194 -0.16137917 -0.23717369 0.06775655 -0.22519605 -0.24447028 -0.1173783 0.015171066 0.039928485 -0.04471982
73 0.043851428 -0.033239882 -0.16213274 -0.04015879 -0.0017875329 0.068984345 -0.0051855943 0.098489314 -0.091694415 -0.03107035 0.18846852 -0.007600636 0.100531146 0.053314585 -0.16705288 0.12405739 -0.0144039495 -0.059136137 -0.21643862 0.11869301 0.22490002 -0.11206413 -0.047014665 -0.15231569 -0.19860819 0.045991633 -0.21340603 -0.20408492 -0.098825134 0.0031577544 0.048943594 -0.031413347
74 0.037511416 -0.0077714124 -0.18093467 -0.028687382 0.023335792 0.09014247 -0.016387548 0.08773835 -0.108536966 -0.047686704 0.2222265 0.00084667077 0.095483616 0.048975885 -0.16398022 0.13309014 -0.018298415 -0.07345345 -0.22917609 0.13839479 0.22160436 -0.119837016 -0.017831372 -0.13893004 -0.19394906 0.051806413 -0.21578768 -0.2388604 -0.095142394 0.011220193 0.040390365 -0.026435621
75 0.038814213 -0.0057783006 -0.17203431 -0.04906289 -0.010012042 0.09216246 -0.028185157 0.10414236 -0.106226265 -0.03409144 0.20376448 0.0057534217 0.08901792 0.036510307 -0.1696069 0.108254395 0.012824419 -0.06845485 -0.21374245 0.12746292 0.22655177 -0.13059998 -0.03572404 -0.12703833 -0.16906615 0.056742948 -0.17723244 -0.20589478 -0.09026008 0.0052966727 0.015726242 -0.040984903
76 0.03608342 -0.009748975 -0.16734973 -0.040978055 -0.027156621 0.08255594 -0.01960015 0.10416032 -0.08147009 -0.012829276 0.2034714 -0.006789558 0.12382816 0.055457603 -0.17921184 0.12585098 0.002663469 -0.070532694 -0.24510199 0.13120945 0.23879707 -0.14327314 -0.05766664 -0.13736585 -0.2006789 0.043504156 -0.20746909 -0.21327093 -0.10572626 0.021962816 0.0413643 -0.045171246
77 0.0411208 -0.0031660192 -0.16863377 -0.03098068 -0.018403985 0.088530496 -0.03352964 0.07445026 -0.079339825 -0.017187722 0.18660074 -0.0073839664 0.08440083 0.037154105 -0.14018635 0.13020179 0.019137979 -0.0846654 -0.22887899 0.10309656 0.19484591 -0.113459006 -0.041761354 -0.1380089 -0.1973932 0.06674739 -0.1888027 -0.19764803 -0.067743026 0.012816808 0.024408286 -0.04696696
78 0.023031734 -0.024014793 -0.16010961 -0.03985577 -0.012865843 0.06686802 -0.002811221 0.08442243 -0.11694807 -0.044695284 0.2037009 -0.00905758 0.072760135 0.033584233 -0.1342137 0.12354393 -0.008875682 -0.060187533 -0.2184008 0.13290602 0.20443478 -0.13146187 -0.034967385 -0.12162687 -0.1918367 0.064327985 -0.20394194 -0.2205651 -0.103333674 0.012630042 0.043496795 -0.01392058
79 0.04111681 0.00061914587 -0.13696663 -0.032440543 -0.023358304 0.07380624 -0.016817877 0.07869337 -0.09911267 -0.020953488 0.17887713 -0.0048856945 0.1027936 0.025106965 -0.1349005 0.109458536 0.005323172 -0.05759996 -0.16791262 0.11797587 0.18649012 -0.09636128 -0.037693776 -0.09883248 -0.16301616 0.05600105 -0.1590168 -0.17984866 -0.086817555 0.020023528 0.041508052 -0.04403703
80 0.06335922 -0.008912396 -0.17538092 -0.06414139 -0.005394305 0.101905 -0.01294433 0.10903781 -0.11816929 -0.04761744 0.21642955 -8.7315246e-05 0.121499725 0.034702454 -0.18570223 0.14960048 -0.008317617 -0.0644846 -0.22066186 0.12680633 0.24464476 -0.1323031 -0.03842338 -0.1344081 -0.18358476 0.07158616 -0.19809942 -0.23295881 -0.10730512 0.025041869 0.030358734 -0.06251587
81 0.030123582 0.00046710993 -0.16109101 -0.039313942 -0.0056225318 0.097358614 -0.00854046 0.085882805 -0.09986023 -0.042360418 0.18359649 -0.02377419 0.09886982 0.029579898 -0.14676338 0.11086199 -0.002172462 -0.057832316 -0.17753597 0.10805427 0.2026472 -0.12708884 -0.033939455 -0.12044501 -0.1772322 0.044311035 -0.15465434 -0.19394498 -0.081101194 0.005524778 0.047541454 -0.042195383
82 0.06764032 -0.013072715 -0.1778677 -0.063764185 0.01109733 0.10810748 0.011016333 0.09797034 -0.14678273 -0.057118066 0.23002361 0.022649169 0.102820836 0.0425248 -0.1594168 0.13700615 -0.010231175 -0.077079885 -0.21089646 0.13227586 0.2350134 -0.1282296 -0.043067258 -0.15159194 -0.17136943 0.05310072 -0.20699042 -0.24628434 -0.1327575 0.02708499 0.040285125 -0.053294536
83 0.057610396 -0.01839546 -0.17184125 -0.0332707 -0.0051179035 0.10144432 -0.009375207 0.108429365 -0.08352605 -0.02611463 0.18075612 -0.016285177 0.089119405 0.056009516 -0.14113532 0.12770315 -0.006718561 -0.074478395 -0.22005138 0.10403377 0.1937999 -0.10137344 -0.030771265 -0.13149953 -0.17461292 0.045509975 -0.19775467 -0.19106121 -0.08551749 0.007973698 0.01886338 -0.03144633
84 0.04767705 -0.035841987 -0.18330902 -0.04957276 0.0016873458 0.07495148 -0.008012937 0.092565075 -0.10859859 -0.022382937 0.18800923 -0.026754864 0.07354707 0.04014328 -0.14986594 0.10048001 0.014522442 -0.07259862 -0.23866142 0.10790334 0.2168456 -0.11403175 -0.03019227 -0.13503033 -0.17693402 0.073430076 -0.2096649 -0.2144432 -0.08592365 0.018233955 0.04649713 -0.027361616
85 0.043515585 -0.021707457 -0.19357993 -0.04670518 -0.00228357 0.11824902 -0.0153223425 0.11147296 -0.10923148 -0.01738069 0.25096273 -0.031078482 0.12350233 0.040517487 -0.18313022 0.16352038 0.013716216 -0.08466659 -0.26114774 0.14629516 0.24973787 -0.16315247 -0.03747706 -0.14512897 -0.21309821 0.06114949 -0.22238904 -0.24015243 -0.10637944 0.008077956 0.040954076 -0.061761547
86 0.050508484 0.021261552 -0.19123721 -0.059213728 -0.0068325917 0.14332482 -0.016679816 0.08586741 -0.11857282 -0.05145303 0.21413419 -0.010229451 0.13364692 0.05186258 -0.16418377 0.14983849 0.022671446 -0.06801457 -0.22449635 0.14142379 0.23479679 -0.12683122 -0.03791778 -0.13572848 -0.19118597 0.046080586 -0.20422971 -0.20677963 -0.11972391 0.025230719 0.021032263 -0.06334057
87 0.056640778 -0.023667926 -0.15523504 -0.054495953 -0.008745941 0.08631699 -0.0044433614 0.0874288 -0.09443723 -0.009446972 0.21101455 -0.02862157 0.092857525 0.038613774 -0.13377018 0.119293876 -0.0146096395 -0.06649089 -0.22584212 0.122698486 0.21558912 -0.13371174 -0.020909838 -0.14841639 -0.1699303 0.045262862 -0.21520707 -0.20192346 -0.07231743 0.0052826493 0.042425558 -0.035743445
88 0.040330317 -0.044025455 -0.15986498 -0.022054872 0.028968945 0.050380394 -0.021550016 0.100676216 -0.09698174 -0.021697763 0.16566783 -0.011433457 0.056058146 0.033401527 -0.13409872 0.09386454 -0.023052191 -0.04750077 -0.17757651 0.09202688 0.18137185 -0.114286914 -0.027537417 -0.13730274 -0.18220562 0.026823042 -0.18014099 -0.20656501 -0.079635166 0.024775065 0.02822132 0.0018418087
89 0.03397291 -0.010162432 -0.18262862 -0.045507766 -0.014397395 0.09931413 -0.033898555 0.10493021 -0.07352197 -0.0062860544 0.21651158 -0.018440135 0.10767068 0.027650425 -0.17045616 0.13991022 0.014673805 -0.07609937 -0.24429026 0.12491581 0.23110218 -0.14021325 -0.048471935 -0.13837107 -0.20293409 0.07928881 -0.2085759 -0.22802731 -0.08695175 -0.006957622 0.04049045 -0.05427474
90 0.05687111 0.015248897 -0.13576487 -0.048317697 -0.025221055 0.0884414 -0.0100105265 0.07392953 -0.08978021 -0.02848066 0.17983529 0.007705139 0.10124701 0.041659355 -0.16027741 0.13166891 0.0020834983 -0.04719925 -0.18173014 0.12036316 0.20662704 -0.10580448 -0.050050527 -0.116161026 -0.16468677 0.04094024 -0.15978293 -0.1820005 -0.08828392 -0.0037669234 0.018047374 -0.03765354
91 0.040190313 -0.008662642 -0.12228997 -0.037039705 0.010179622 0.0634644 -0.023009634 0.0703446 -0.09794373 -0.042622987 0.16875848 -0.013097108 0.09931039 0.043414902 -0.12875766 0.08819698 0.003279331 -0.043150946 -0.1769509 0.10661128 0.16393626 -0.08716613 -0.031668276 -0.10866374 -0.13875523 0.0484134 -0.16259801 -0.15953834 -0.07539336 0.0190537 0.03864378 -0.024956627
92 0.04465741 -0.011408651 -0.16277611 -0.05141335 -0.019447217 0.08980606 -0.026408691 0.08156525 -0.092416525 -0.025365395 0.18453696 -0.006553703 0.08233895 0.03636499 -0.12698972 0.09486331 -0.0021367122 -0.05342001 -0.19235162 0.11085485 0.18701729 -0.103388004 -0.040354516 -0.10077058 -0.16198765 0.07048808 -0.17868014 -0.16694741 -0.093613654 0.024981238 0.018932015 -0.03440224
93 0.041015252 -0.01286422 -0.16209769 -0.03254171 -0.017457247 0.09790805 -0.014738626 0.07990893 -0.06933665 -0.03340105 0.18136664 -0.009089474 0.12254331 0.030017907 -0.15649024 0.13471504 0.004627414 -0.0700885 -0.18951026 0.120312616 0.19850475 -0.10070449 -0.029542904 -0.12784417 -0.16916928 0.035493996 -0.17236657 -0.2011244 -0.087756544 0.017955918 0.014149879 -0.061913487
94 0.0394323 0.021366246 -0.19423787 -0.056555774 -0.0032907447 0.1309072 0.00600446 0.09777006 -0.1394537 -0.07180994 0.22776362 0.019463345 0.13993457 0.06857 -0.17035244 0.14157449 -0.02054003 -0.043337774 -0.21414162 0.16008218 0.24099988 -0.14363194 -0.044864196 -0.16090867 -0.19337538 0.038776137 -0.21261887 -0.2342387 -0.14680119 0.0065230676 0.03733515 -0.06544471
95 0.06065972 -0.023645807 -0.18131877 -0.060836412 0.005825043 0.09938023 -0.0124424035 0.11191117 -0.11474245 -0.04694285 0.22000857 -0.0072493507 0.09933524 0.055674054 -0.1653393 0.116682895 0.007898963 -0.055806063 -0.23052636 0.12149456 0.22303537 -0.13610867 -0.039113436 -0.1449098 -0.18937862 0.06932562 -0.22866061 -0.21622989 -0.110057116 0.019363828 0.046581127 -0.02597602
96 0.043980744 -0.005984737 -0.18180233 -0.062100194 -0.006609615 0.09650633 -0.010411962 0.12360566 -0.10802237 -0.022940323 0.23223636 0.009809436 0.12018622 0.057762608 -0.17281915 0.13398226 0.0017960205 -0.058980774 -0.23638886 0.1292879 0.26287055 -0.15699191 -0.03131174 -0.1494162 -0.21709943 0.042928245 -0.22545798 -0.2317115 -0.09658884 0.0021429819 0.033168085 -0.055453554
97 0.060680572 -0.015516817 -0.19492692 -0.042770226 -0.018035876 0.09857706 -0.026070565 0.10943536 -0.09343069 -0.010292669 0.19494946 -0.026986334 0.09286546 0.055949714 -0.17997772 0.1379913 0.008094701 -0.06260627 -0.24143831 0.13140573 0.23596832 -0.13663036 -0.032634277 -0.15201652 -0.18777779 0.0845766 -0.19510347 -0.23463894 -0.080169365 0.010799934 0.023319213 -0.051498767
98 0.04876819 0.0019126518 -0.16440037 -0.03011472 0.014284083 0.102479674 -0.0019228454 0.08160553 -0.11782183 -0.023814958 0.21067056 -0.008138289 0.081978254 0.033776786 -0.15210587 0.12083143 0.007188764 -0.054204777 -0.2011847 0.12601379 0.19741298 -0.12243818 -0.041354995 -0.12563615 -0.1699524 0.04718287 -0.19896235 -0.19946752 -0.092625394 0.01592234 0.041012082 -0.04548846
99 0.06557079 -0.002732857 -0.17542294 -0.06348318 -0.009199666 0.11168014 -0.017247435 0.12632793 -0.12075465 -0.019538864 0.22202496 -0.004161195 0.10265485 0.05883642 -0.16933593 0.11845278 0.0010979725 -0.060472544 -0.20676894 0.12738286 0.23204234 -0.14316173 -0.030657772 -0.15498812 -0.19863726 0.047084797 -0.19603854 -0.22172563 -0.10396772 0.005883509 0.057254083 -0.048277084
100 0.059823066 -0.0017193652 -0.16811058 -0.053259347 -0.015127887 0.11092129 -0.008889631 0.09386211 -0.093883015 -0.04798306 0.22901239 -0.0014545122 0.12457298 0.046470284 -0.1842507 0.13569391 0.020250168 -0.0656508 -0.22881474 0.124423064 0.24997364 -0.14813527 -0.033318583 -0.15053506 -0.1875927 0.061609413 -0.22259648 -0.23453815 -0.10910308 0.035520174 0.042092025 -0.05907627
101 0.028503696 0.013795903 -0.13215406 -0.050072297 -0.0077950903 0.06326773 -0.018310258 0.06504142 -0.057355653 -0.02846597 0.16189888 -0.0058759777 0.10789099 0.0151293045 -0.11458077 0.096831344 0.003988012 -0.05348244 -0.15913923 0.10529784 0.1757675 -0.088338085 -0.051210232 -0.09867231 -0.141608 0.043639172 -0.1554558 -0.15705054 -0.055333305 -0.002158286 0.029249381 -0.044406593
102 0.041595962 -0.02719744 -0.18401453 -0.03359333 -0.015195905 0.069458894 -0.035609093 0.09178582 -0.07858184 -0.0071215 0.20182094 -0.03988221 0.095780365 0.048948836 -0.16824132 0.11486312 0.0148595935 -0.09525901 -0.25186396 0.12750633 0.22668496 -0.13799481 -0.03687596 -0.14107168 -0.21377744 0.077476695 -0.21609028 -0.23150562 -0.07244569 0.036890827 0.017939532 -0.020445112
103 0.043553695 -0.004815857 -0.16478816 -0.05301015 0.0034748418 0.103921294 0.002092381 0.09761086 -0.106246114 -0.050522905 0.20544924 0.0040502776 0.11930735 0.036934897 -0.14685632 0.120351285 0.00035686904 -0.039588347 -0.21199878 0.11970336 0.19747928 -0.111430615 -0.032046523 -0.13027237 -0.18027593 0.044449434 -0.19204544 -0.19763608 -0.10569823 0.012964768 0.025408559 -0.05452549
104 0.038959913 0.0029195177 -0.13530143 -0.027081873 -0.006675557 0.076261476 -0.02485442 0.072154984 -0.09725929 -0.02472337 0.1693187 -0.018750735 0.09696921 0.04246012 -0.15668042 0.108384624 0.0066530234 -0.06268723 -0.19366905 0.10622677 0.19584939 -0.1070295 -0.018939748 -0.13260147 -0.14777628 0.03672433 -0.16254233 -0.16983832 -0.09152899 0.0029124639 0.02795251 -0.048212472
105 0.06048432 0.009143239 -0.17584717 -0.07348854 -0.01758788 0.13461934 -0.014726994 0.09391149 -0.1287152 -0.050401323 0.21852045 -0.0071050655 0.12139884 0.04860665 -0.18856731 0.16507915 0.01810345 -0.06801235 -0.22057503 0.12622125 0.24458972 -0.1365436 -0.042980358 -0.13322742 -0.17961054 0.0771172 -0.20352904 -0.23492132 -0.11562892 0.023965737 0.028265014 -0.06011737
106 0.02536725 -0.019637518 -0.14534684 -0.04394639 -0.0021404075 0.06732327 -0.019490307 0.08016859 -0.06963568 -0.015349472 0.1789419 -0.037892826 0.093162574 0.041946936 -0.12579212 0.13031898 -0.0058508734 -0.062331088 -0.2044596 0.09493368 0.19320187 -0.105764635 -0.0484447 -0.11797705 -0.18450518 0.043478686 -0.1753494 -0.18501313 -0.072323844 0.017172502 0.033565212 -0.024966763
107 0.047880895 -0.05123258 -0.18374366 -0.031576592 0.001363837 0.0540542 -0.023875898 0.09485854 -0.065656185 0.0018104331 0.20238203 -0.041055724 0.08137448 0.063280836 -0.1655785 0.11042564 -0.016800242 -0.09413258 -0.23917769 0.13159053 0.23385449 -0.12681295 -0.04636586 -0.13808317 -0.20164315 0.06872035 -0.2227852 -0.23322584 -0.080048926 0.02878539 0.025187114 -0.008263802
108 0.057648506 0.014056797 -0.16267617 -0.04690207 -0.015077504 0.10432614 -0.012585419 0.10729698 -0.12637582 -0.03282876 0.19293687 0.0054145935 0.08318729 0.02977229 -0.16333793 0.13759741 0.016541319 -0.059928186 -0.20240788 0.11361149 0.20194192 -0.10102286 -0.03298854 -0.12858719 -0.17421672 0.044486232 -0.19598027 -0.20899245 -0.10043097 0.0011872496 0.01916866 -0.035488166
109 0.042708464 -0.023389954 -0.20495899 -0.037292074 0.01876154 0.056381144 -0.03510603 0.096568614 -0.101143226 -0.036873303 0.22084266 -0.011892854 0.11632525 0.055306666 -0.15742996 0.12008129 -0.006717017 -0.08263463 -0.24907993 0.1286751 0.24736355 -0.14357571 -0.029820323 -0.15033221 -0.23255056 0.051485673 -0.23268245 -0.2326465 -0.08724827 0.014344315 0.01517678 -0.042377505
110 0.04751361 -0.029764704 -0.19523275 -0.04771409 0.013088114 0.07137703 -0.016393628 0.11195444 -0.10692652 -0.029051142 0.21148972 -0.012354044 0.088846765 0.032547493 -0.16714469 0.13846685 -0.014887717 -0.08654164 -0.25559142 0.12881814 0.24222402 -0.14623262 -0.044828203 -0.14472866 -0.21951322 0.058596555 -0.23232907 -0.22686118 -0.09844892 0.0065360176 0.03125139 -0.037802197
111 0.04015456 -0.024158347 -0.1678945 -0.0454665 -0.019979514 0.061487213 -0.026507735 0.09871892 -0.085125655 -0.0076224324 0.18489368 -0.016019719 0.09042155 0.038050976 -0.14250943 0.09949843 0.0037418595 -0.07376312 -0.2139654 0.11916296 0.18372123 -0.11484651 -0.0180313 -0.13955244 -0.18288067 0.049555745 -0.19803554 -0.19237778 -0.07383548 0.005646806 0.04624083 -0.013459775
112 0.046409715 -0.023833213 -0.17448954 -0.030408084 0.010114016 0.07843016 -0.016342739 0.11423528 -0.09233988 -0.0074731125 0.21237372 -0.01947288 0.09001175 0.053061936 -0.16086267 0.10546024 0.007312138 -0.06759324 -0.22118245 0.1285234 0.22248125 -0.11492255 -0.044297844 -0.13520575 -0.20613217 0.06578997 -0.20775807 -0.22659615 -0.08955829 0.041031055 0.044625517 -0.020158231
113 0.060985006 -0.031826235 -0.17878722 -0.035144437 0.005031613 0.070392296 -0.0314185 0.094501324 -0.0806991 -0.011725371 0.21083356 -0.020182233 0.081342496 0.033641454 -0.14250335 0.11879129 0.013818204 -0.08658353 -0.22845237 0.13411166 0.21405582 -0.12583715 -0.0387622 -0.13019419 -0.19836234 0.05073276 -0.20775071 -0.21885684 -0.08817482 0.017419927 0.030348422 -0.044751003
114 0.037150834 -0.0076012667 -0.15313885 -0.0399324 0.012744362 0.080585994 -0.0040246346 0.10728419 -0.13775566 -0.042062603 0.21481436 -0.0063714366 0.082753465 0.059379607 -0.15068363 0.09266448 0.00054638844 -0.056380913 -0.19857968 0.10337642 0.1978155 -0.115923375 -0.012584722 -0.1471347 -0.1830923 0.031020988 -0.19120075 -0.22554927 -0.09701641 0.02579172 0.04183859 -0.009863421
115 0.054264303 -0.030319197 -0.17993638 -0.030683948 -0.0060057077 0.066250384 -0.008338582 0.09502737 -0.08302888 -0.009156368 0.20941067 -0.010815281 0.085561916 0.04672757 -0.15419245 0.104919374 0.011034683 -0.080650836 -0.23004015 0.13930267 0.22157192 -0.13014102 -0.032599926 -0.12692216 -0.20035994 0.06349962 -0.20339301 -0.21150358 -0.07318287 0.035969622 0.031064924 -0.042052407
116 0.06014969 0.0027690162 -0.14536615 -0.037593454 0.00929508 0.10044146 -0.012469509 0.07795129 -0.116046175 -0.02354195 0.17305486 0.0056285853 0.09839606 0.04096559 -0.1274442 0.11598464 -0.0045627495 -0.049965616 -0.18843469 0.12008902 0.1757887 -0.100912996 -0.031178478 -0.12589407 -0.17134915 0.04097619 -0.16660015 -0.17629099 -0.09117464 0.008319924 0.031536415 -0.026454566
117 0.057439413 -0.012580186 -0.1572766 -0.045622095 -0.005478031 0.09709264 -0.009706513 0.089561604 -0.1030996 -0.03639031 0.17985232 -0.024033103 0.08569557 0.04624484 -0.1426323 0.11459149 0.026811223 -0.081732534 -0.2204459 0.10138376 0.20455079 -0.109106526 -0.03018921 -0.13364041 -0.15955618 0.051060747 -0.1894051 -0.20689897 -0.08232142 0.027389584 0.015606428 -0.042694643
118 0.033031248 -0.024934616 -0.17379503 -0.043227226 -0.011131319 0.08778395 -0.014504553 0.102343746 -0.0795063 -0.014160333 0.20844017 -0.0047319112 0.092559785 0.04749479 -0.1607727 0.12608287 0.014096534 -0.078705095 -0.20678633 0.12603313 0.19806449 -0.12576334 -0.03379955 -0.13490964 -0.18394779 0.054080136 -0.20275807 -0.20800568 -0.088535145 0.023596853 0.04029802 -0.032781173
119 0.0259528 -0.02385849 -0.15364815 -0.045209326 -0.003868463 0.07054418 -0.0014785628 0.09842808 -0.07018585 -0.0069314837 0.17758927 -0.022481479 0.09920938 0.02767675 -0.1411939 0.1185241 -0.0058461847 -0.05005886 -0.19136524 0.11480167 0.17962624 -0.0994817 -0.030690432 -0.11252724 -0.15960214 0.0527228 -0.18242419 -0.1807564 -0.0780326 0.0070111724 0.03482714 -0.027605014
120 0.050419107 -0.01462847 -0.18256806 -0.05197626 0.0066332067 0.07692452 -0.010852342 0.08528361 -0.09947245 -0.025386449 0.2087954 -0.025364848 0.09787064 0.032253876 -0.15696083 0.12911081 -0.013196641 -0.07893385 -0.24337843 0.12854378 0.23682567 -0.14495829 -0.031117098 -0.14285903 -0.19125469 0.0530295 -0.22348446 -0.22329706 -0.10206738 0.034098618 0.026858374 -0.043922137
121 0.03895066 -0.02127478 -0.16859521 -0.032607667 -0.004422886 0.100366235 -0.009922874 0.08631398 -0.087917976 -0.010552896 0.17210226 0.00406126 0.10767257 0.044790458 -0.14904705 0.1336031 0.018310674 -0.048382536 -0.19347 0.123893514 0.18843421 -0.1220515 -0.037777457 -0.11645314 -0.1694282 0.043936085 -0.18036695 -0.19699326 -0.101459704 -0.00048605885 0.03447611 -0.053895637
122 0.07333764 0.0033723267 -0.23060173 -0.04762459 0.010414518 0.13935484 0.0027470845 0.11453643 -0.1622359 -0.0637721 0.26517728 -0.00029369167 0.1321531 0.062145002 -0.18676925 0.141561 0.0039383993 -0.068493254 -0.28030527 0.17472315 0.28896138 -0.14955796 -0.03818072 -0.1851538 -0.24306715 0.043280482 -0.25023264 -0.2926076 -0.13682526 0.022396171 0.060956538 -0.035262402
123 0.059597608 0.0075804326 -0.16456188 -0.048904005 -0.024906471 0.09124265 -0.03092167 0.10640432 -0.09859966 -0.03318816 0.18480606 -0.027834939 0.10146024 0.04503669 -0.16215454 0.12354247 0.02758202 -0.07774901 -0.22288676 0.11383871 0.23279521 -0.14226884 -0.030119665 -0.11817244 -0.1895233 0.05679673 -0.18231103 -0.21871218 -0.09262445 0.007536325 0.04344209 -0.070047386
124 0.049182203 0.0023594005 -0.17440695 -0.033506528 -0.014158836 0.08909235 -0.034004916 0.09795238 -0.09331031 -0.033255797 0.2108099 -0.028705336 0.095103785 0.036271065 -0.16055147 0.120354585 0.018460723 -0.07790434 -0.22253916 0.12264529 0.21141054 -0.111539915 -0.048608303 -0.1479896 -0.18378831 0.05167828 -0.20672503 -0.21021551 -0.0847392 0.025163148 0.040763408 -0.0271811
125 0.022835108 -0.008263754 -0.13561957 -0.04047767 -0.0046173017 0.05462886 -0.00922498 0.087343186 -0.06279681 -0.028538672 0.16517618 -0.009257293 0.058862954 0.034623943 -0.12814678 0.10080686 0.0038327866 -0.05646692 -0.1722842 0.085783884 0.16427808 -0.10061323 -0.017215079 -0.10482154 -0.1514978 0.047733266 -0.16278167 -0.18266617 -0.06722599 0.025562918 0.039561354 -0.009746031
126 0.051892295 -0.016863983 -0.18449952 -0.054196447 -0.02029852 0.08815116 -0.017855776 0.103815936 -0.1228303 -0.012384133 0.21057287 -0.023265393 0.08022979 0.026187599 -0.14745854 0.12926064 0.009654 -0.08292306 -0.24155015 0.12641422 0.21008542 -0.14381462 -0.041137565 -0.1440204 -0.18046148 0.057153944 -0.20405483 -0.21432441 -0.09287928 0.0111836465 0.023234453 -0.028098432
127 0.05211553 -0.016346728 -0.19747198 -0.050587647 0.012958065 0.09463649 -0.026797194 0.10633214 -0.14274538 -0.025779514 0.22968726 -0.011079542 0.09463073 0.067970455 -0.17365801 0.13654433 -0.00057981757 -0.072963834 -0.2253164 0.13524592 0.24367659 -0.1365744 -0.039043546 -0.17421074 -0.21880671 0.04290667 -0.23583652 -0.2642222 -0.11901537 0.01805042 0.045389604 -0.033425402
128 0.047642875 -0.042218853 -0.15435764 -0.03847751 -0.002744464 0.04804132 -0.025977863 0.09381442 -0.09832351 -0.014109191 0.18148059 -0.018858476 0.067125 0.03419335 -0.11328618 0.07989044 -0.005018313 -0.06950748 -0.19534364 0.1170663 0.17001209 -0.11316631 -0.010850068 -0.11235939 -0.15917814 0.065671906 -0.18824986 -0.17640889 -0.05493585 0.010623661 0.021388676 -0.024741199
129 0.032841228 -0.012895444 -0.17038476 -0.05124276 -1.6504031e-05 0.10130946 -0.017724076 0.10025497 -0.11425719 -0.015207203 0.20317364 -0.022902306 0.078636184 0.026233776 -0.15205407 0.11050514 0.019631986 -0.06629271 -0.23069301 0.10948929 0.20220372 -0.1314923 -0.038245182 -0.12196674 -0.18441303 0.056456584 -0.20593183 -0.21079235 -0.074598216 0.015834942 0.045751907 -0.03178024
130 0.033856533 -0.006044249 -0.15162638 -0.032831263 -0.005631384 0.07237988 -0.023382587 0.08504369 -0.08437776 -0.0169916 0.18523487 -0.007145295 0.08707359 0.043068208 -0.152337 0.124459326 0.0075593404 -0.042515185 -0.1718569 0.12490877 0.19973251 -0.09150822 -0.02584836 -0.100860156 -0.16496696 0.04609234 -0.16122533 -0.17950629 -0.07837125 -0.001784839 0.020720137 -0.051657785
131 0.046095192 -0.019430887 -0.1860324 -0.069878966 0.003415329 0.11870172 -0.016483981 0.11251606 -0.120525904 -0.048960768 0.25556183 0.0022964934 0.11719879 0.05332104 -0.17042142 0.1284398 -0.005971895 -0.071259476 -0.23919207 0.16263871 0.26940572 -0.15307152 -0.0326168 -0.17077383 -0.22187324 0.043622725 -0.2313537 -0.2642606 -0.12499943 0.031020483 0.030675298 -0.032150596
132 0.050586253 -0.0068914625 -0.17390689 -0.027971627 -0.011515936 0.085326314 -0.01673497 0.10096982 -0.099948086 -0.021110585 0.16937466 -0.019650206 0.09949385 0.05017107 -0.14005508 0.12031223 -0.0028994088 -0.07897305 -0.22600988 0.11393238 0.20791183 -0.10578974 -0.047184337 -0.13084744 -0.16887839 0.069764644 -0.20020549 -0.18148045 -0.071562655 0.027512765 0.031078268 -0.024252528
133 0.05820627 0.020979661 -0.18002887 -0.053446658 -0.02151052 0.15052791 -0.015756095 0.10732518 -0.15119076 -0.055513896 0.22002994 0.018815702 0.11294451 0.033929545 -0.18994008 0.13505335 0.018768393 -0.06130349 -0.22798087 0.14349921 0.23271215 -0.1396577 -0.04791493 -0.1295307 -0.19066717 0.059349272 -0.21144815 -0.24586809 -0.1262527 0.019479897 0.041044176 -0.051144224
134 0.045098588 0.012058308 -0.18330197 -0.05117614 -0.013416761 0.10136439 -0.015537721 0.11589912 -0.11589759 -0.047098946 0.20574062 0.0141386045 0.11268628 0.045479607 -0.16081032 0.12860459 0.022205591 -0.067718744 -0.22254466 0.14207469 0.22397926 -0.13488789 -0.03418849 -0.13532162 -0.173794 0.068876214 -0.20263715 -0.20514178 -0.10137343 0.027048588 0.023413135 -0.062293585
135 0.049571645 -0.0023906443 -0.13896966 -0.047782537 -0.015434576 0.08304473 -0.024287645 0.07505292 -0.08472385 -0.038612515 0.17193313 -0.00491321 0.10329228 0.041349966 -0.14828466 0.10538196 0.009727386 -0.042908143 -0.1787852 0.11992575 0.20861535 -0.115283504 -0.05245255 -0.10395588 -0.1824286 0.05085655 -0.15481763 -0.17770572 -0.080211304 -0.009988724 0.021122225 -0.05925052
136 0.04008968 0.00022449173 -0.17463446 -0.04296889 -0.0022572246 0.113439284 -0.009700807 0.09888568 -0.11512287 -0.04796934 0.1978795 -0.00012210307 0.08657771 0.055348855 -0.16398348 0.1328918 0.0054005273 -0.063882805 -0.23513037 0.13566364 0.22648476 -0.14465244 -0.049533483 -0.13539909 -0.19385533 0.055493608 -0.21054415 -0.22803187 -0.107759684 0.032942925 0.040370855 -0.03211847
137 0.057051744 0.0048661297 -0.15721807 -0.05872749 -0.0049248068 0.09965796 0.005312511 0.09425129 -0.107645795 -0.03594711 0.21519578 0.018814497 0.109166674 0.040850952 -0.15447369 0.1274115 -0.008550157 -0.05515074 -0.19990008 0.119119026 0.218565 -0.12764601 -0.04369791 -0.13217014 -0.19616787 0.025430176 -0.19174553 -0.2069528 -0.117264956 0.018183999 0.03489636 -0.035871588
138 0.041878022 -0.029837286 -0.15090545 -0.04590248 0.0006350187 0.06971228 0.0032237212 0.07743365 -0.09042713 -0.010677003 0.18257321 -0.0148435 0.069140494 0.034851722 -0.10899983 0.0932173 -0.0139666675 -0.07393462 -0.17785177 0.101578526 0.17071669 -0.107262634 -0.0051750625 -0.11992679 -0.1386153 0.04382996 -0.17929602 -0.19866484 -0.0709113 0.0136189135 0.023701867 -0.02269626
139 0.056249052 -0.014175478 -0.20622349 -0.058638863 -0.0012880247 0.09199882 -0.011964773 0.12711266 -0.13761275 -0.034936193 0.26026484 -0.032623723 0.111870214 0.07057591 -0.1999732 0.12331889 -0.007552251 -0.08131759 -0.27908725 0.15781365 0.26839355 -0.15922512 -0.052170027 -0.1807566 -0.23734008 0.07383606 -0.25591898 -0.2541961 -0.0992546 0.033940487 0.04342444 -0.03889779
140 0.04689589 0.012426762 -0.17096151 -0.053849403 -0.0103974715 0.091334574 -0.010515841 0.08729408 -0.08391694 -0.03340199 0.20084095 -0.0057811937 0.122461766 0.047208577 -0.16208652 0.10414035 -0.012387597 -0.06640081 -0.20882592 0.1086605 0.199828 -0.107506454 -0.036579687 -0.1429879 -0.18460618 0.030477881 -0.19219404 -0.19457883 -0.11043995 -0.0037516197 0.025393553 -0.054323312
141 0.057519667 -0.0018421168 -0.16464716 -0.037180424 -0.01749962 0.0942665 -0.032733425 0.0997634 -0.093442164 -0.030304313 0.19808087 -0.009931596 0.09459914 0.02494131 -0.17249429 0.12682943 0.01754468 -0.07985073 -0.22160676 0.1069789 0.2147065 -0.11974162 -0.06423097 -0.11976422 -0.18253809 0.07313662 -0.18365996 -0.18715653 -0.090227686 -0.00045895381 0.03425417 -0.064788625
142 0.059569053 0.003228453 -0.17973804 -0.044495553 -0.006744615 0.08422503 -0.03388578 0.11631419 -0.10845029 -0.020501016 0.20405075 -0.010131306 0.1009858 0.049382538 -0.18453252 0.13943593 0.011207154 -0.078814924 -0.24999897 0.12394618 0.23106718 -0.13321503 -0.046107743 -0.12962438 -0.21669032 0.07808381 -0.2078028 -0.22699231 -0.09933395 0.0068572797 0.026634853 -0.03417097
143 0.052052055 -0.013369448 -0.17385712 -0.062531196 -0.030791309 0.106186844 -0.025555193 0.10073191 -0.08559864 -0.02468794 0.19606736 -0.013830577 0.083116144 0.029231865 -0.15663758 0.12476037 0.016595228 -0.06103943 -0.2364401 0.1334501 0.21338348 -0.11107365 -0.03268306 -0.12231395 -0.19236086 0.07139851 -0.19257686 -0.20272866 -0.08971266 0.0048081586 0.018936059 -0.046954725
144 0.043259308 -0.02422514 -0.17447409 -0.04019115 -0.032095872 0.100649245 -0.031021887 0.10669853 -0.077364564 -0.023989389 0.20218273 -0.004816088 0.09952964 0.04333056 -0.16573504 0.12118174 0.0012136085 -0.05526276 -0.2000748 0.10564711 0.2012583 -0.1316753 -0.035997983 -0.123785466 -0.1681585 0.055949748 -0.19180939 -0.19585328 -0.07907078 -0.011321124 0.03427074 -0.062018856
145 0.057199933 -0.016738227 -0.14998123 -0.040239558 0.0002572271 0.09569587 -0.008716278 0.1009804 -0.10174333 -0.017895397 0.19801328 -0.007146322 0.09933751 0.041549686 -0.16516852 0.13252799 -0.00097233115 -0.05220823 -0.19778547 0.13195446 0.22573861 -0.12369507 -0.027305461 -0.146591 -0.18322316 0.048520595 -0.19566266 -0.20783612 -0.10236331 0.012078361 0.030255469 -0.04806628
146 0.05723864 -0.0031803653 -0.15406172 -0.03143918 -0.014539368 0.09013262 -0.028851049 0.078928754 -0.08229226 -0.025379455 0.15539767 -0.028298983 0.072654136 0.0177388 -0.12812579 0.11197973 0.018439747 -0.05949398 -0.18398958 0.09624386 0.16399 -0.09347577 -0.04978984 -0.107054725 -0.14028794 0.0778958 -0.14996856 -0.15407738 -0.056978967 0.012979735 0.030764895 -0.0458627
147 0.043361925 -0.02429516 -0.15358508 -0.053630408 -0.0067467527 0.08681857 -0.020639006 0.10182613 -0.07609175 -0.016669052 0.1901521 -0.025391158 0.083507776 0.022353522 -0.139981 0.12551957 0.018090924 -0.065581694 -0.22079474 0.1022689 0.20113885 -0.1245642 -0.026843904 -0.11004686 -0.1792174 0.07358921 -0.19355619 -0.2051859 -0.07115453 0.0018423321 0.027234279 -0.041386075
148 0.056654155 -0.02303655 -0.16174974 -0.048412472 -0.006009152 0.0876002 -0.007959269 0.09819757 -0.09418555 -0.034384184 0.19236694 -0.02768359 0.08506245 0.03218916 -0.16259234 0.10489809 -0.010649497 -0.0641345 -0.2240415 0.118443616 0.21871312 -0.126766 -0.025490979 -0.14244604 -0.19357888 0.07058428 -0.18875448 -0.20595902 -0.09358895 0.033995215 0.036219653 -0.029617019
149 0.045815777 -0.013384563 -0.1865841 -0.030607618 0.01724659 0.07560003 -0.012763197 0.09505643 -0.12919126 -0.05634115 0.22824124 -0.00546706 0.070389025 0.052150324 -0.1405843 0.092091516 -0.019410834 -0.079170614 -0.2204763 0.1338491 0.24290389 -0.1320522 -0.010743487 -0.15037559 -0.18597482 0.025650019 -0.23144174 -0.2287176 -0.11481915 0.025636245 0.039919205 -0.014000302
150 0.07082944 0.0020043992 -0.16635054 -0.05758362 -0.0085685095 0.14261231 -0.014587745 0.110257044 -0.13285917 -0.058482006 0.23838922 0.016740736 0.11634065 0.060146753 -0.17050752 0.153418 -0.011319123 -0.053591315 -0.22692864 0.14283535 0.24714608 -0.13520108 -0.021171764 -0.14210482 -0.1945542 0.035944562 -0.21456149 -0.23297414 -0.14558822 0.000447597 0.04270959 -0.051853336
151 0.06049832 0.0064264 -0.19268696 -0.044806693 -0.02094144 0.101756334 -0.024988288 0.113382846 -0.10489563 -0.031532735 0.23671271 -0.0044826875 0.11432136 0.06109545 -0.18405332 0.13333395 -0.00013697997 -0.06178893 -0.25578043 0.12721494 0.23484074 -0.13550769 -0.036591116 -0.16165686 -0.21674119 0.06790726 -0.20419873 -0.21907566 -0.08283626 0.013556445 0.041344624 -0.06631218
152 0.06589961 0.0035640602 -0.18331054 -0.0402962 -0.023465155 0.13463421 -0.012567554 0.09852192 -0.120587416 -0.013948793 0.2237542 -0.022857029 0.1257824 0.053936254 -0.16853529 0.13987729 0.026120072 -0.05731651 -0.2244569 0.11718431 0.23841155 -0.13522986 -0.069691025 -0.15069449 -0.18545648 0.05511563 -0.21324961 -0.21546812 -0.09914559 0.0088819945 0.02817865 -0.061626088
153 0.051572166 -0.024744332 -0.17876266 -0.033890743 -0.011643891 0.08323535 -0.037286516 0.0885311 -0.103416644 -0.0168185 0.2058809 -0.01987251 0.08472964 0.043909132 -0.15777671 0.12031012 0.0016575173 -0.08524026 -0.2255974 0.13066126 0.22802724 -0.121124975 -0.03744341 -0.13332656 -0.20212059 0.053183965 -0.21224591 -0.20895284 -0.07054013 0.0059771123 0.047024198 -0.040443055
154 0.05307841 -0.026724571 -0.18338612 -0.0450978 -0.017768146 0.086699665 -0.037140124 0.11305747 -0.11211081 0.006390086 0.20168176 -0.03730594 0.084455065 0.046833973 -0.15249847 0.12340321 0.013649468 -0.1031953 -0.25547874 0.12336414 0.21717446 -0.15101221 -0.043682702 -0.15424812 -0.19985907 0.074568465 -0.22111352 -0.2231264 -0.061602514 0.03125119 0.043322932 -0.04497614
155 0.037480656 -0.018279668 -0.14509717 -0.044448182 -0.01071404 0.075922154 -0.029681541 0.0874357 -0.07136289 -0.008796731 0.15079331 -0.01072354 0.0706947 0.032546934 -0.14356673 0.10453908 0.0065101525 -0.06351198 -0.17494649 0.105012834 0.17130952 -0.097341806 -0.03207345 -0.10238229 -0.14864781 0.046449702 -0.14641693 -0.1528484 -0.07888491 -0.0037740665 0.029144991 -0.039827775
156 0.04339785 0.0012416502 -0.123360604 -0.041949358 -0.014219678 0.057619553 -0.01970283 0.076468855 -0.05629773 0.0025944 0.14947814 -0.034790944 0.07995719 0.038298305 -0.13408405 0.11258913 0.023180526 -0.07007007 -0.18756165 0.09329225 0.16943447 -0.10177776 -0.028698213 -0.12027971 -0.15617543 0.06216482 -0.1636873 -0.15671806 -0.07003517 0.005343927 0.03684503 -0.049015366
157 0.061055586 -0.0022231226 -0.17171192 -0.04278954 0.008788115 0.10733829 -0.007348546 0.09830956 -0.12004579 -0.042458408 0.21331926 0.0026001784 0.10662574 0.03650848 -0.14621177 0.13523346 0.01155357 -0.068200074 -0.22102606 0.12764625 0.23064671 -0.14531589 -0.03861386 -0.13285601 -0.20690663 0.056850992 -0.19764668 -0.22650841 -0.08269327 0.022072874 0.04318936 -0.03513677
158 0.043906197 -0.015811121 -0.18192449 -0.03727364 0.0011325908 0.065387726 -0.029086301 0.08024983 -0.08082731 -0.018479515 0.214667 -0.020043805 0.09527873 0.042128388 -0.15087903 0.12729947 0.016595842 -0.07637313 -0.26029822 0.11008148 0.23432226 -0.14304186 -0.056997083 -0.15645134 -0.21516064 0.055329017 -0.22353227 -0.23490298 -0.0682257 0.018122016 0.028911805 -0.039425313
159 0.021048611 -0.031270232 -0.152227 -0.04360091 -0.010962743 0.03630604 -0.015164192 0.062913604 -0.060693167 -0.0012501955 0.15795168 -0.03460665 0.050512996 0.02519843 -0.132891 0.08140975 -0.0015671836 -0.06074043 -0.16772924 0.1022393 0.16898437 -0.10528368 -0.02576415 -0.12261849 -0.1561043 0.037667204 -0.18554685 -0.16013066 -0.06770915 0.012256276 0.021965975 -0.018675182
160 0.04785856 -0.03138553 -0.19050144 -0.036075436 0.035417844 0.06271117 -0.023450574 0.11727586 -0.14164886 -0.04719227 0.22527999 0.0041848295 0.089209 0.044083808 -0.15678617 0.11802955 -0.026723707 -0.06032046 -0.21247694 0.1433025 0.23999773 -0.12949435 -0.019392578 -0.14719538 -0.19500609 0.051222965 -0.22965147 -0.25412902 -0.11304438 0.036435798 0.06183743 -0.020985737
161 0.031090043 -0.027693652 -0.15081728 -0.029718729 0.001191485 0.06734072 -0.017249467 0.09663812 -0.085321486 -0.012028915 0.1861222 -0.015991472 0.09214643 0.043805946 -0.15177877 0.12772343 -9.6833595e-05 -0.05424403 -0.2144797 0.12476629 0.2109538 -0.12202192 -0.03780785 -0.118350685 -0.17884338 0.069291666 -0.17930299 -0.18358584 -0.08850958 0.0181868 0.026369229 -0.033930555
162 0.055959053 -0.021506924 -0.17583351 -0.03626557 -0.01563625 0.09374165 -0.020688867 0.114510275 -0.12326484 -0.017485501 0.19587857 -0.021320023 0.0791867 0.034044456 -0.15204501 0.12569082 0.022266217 -0.057194285 -0.22952935 0.119769774 0.21162388 -0.10962733 -0.049469177 -0.12239895 -0.18424775 0.057231862 -0.18965109 -0.21658835 -0.10085848 0.020325929 0.027817275 -0.043021087
163 0.0395635 -0.02170465 -0.1840693 -0.043192316 -0.0021081315 0.08372888 -0.02994802 0.100589566 -0.105668664 -0.01779866 0.21955945 -0.014079255 0.12956998 0.06270941 -0.18110475 0.14165819 -0.007979821 -0.074302346 -0.2563037 0.14974178 0.2581687 -0.1376355 -0.032155447 -0.1555948 -0.22417685 0.046509527 -0.21238953 -0.24849698 -0.0823016 0.014403715 0.038623367 -0.042865034
164 0.049227946 -0.02094027 -0.1590962 -0.021787902 0.007467871 0.07729194 -0.009502879 0.09963751 -0.1058174 -0.018674366 0.16691035 -0.0010210663 0.07662846 0.05311614 -0.12689565 0.09386035 -0.0037003306 -0.06750314 -0.20887877 0.11105761 0.19044669 -0.11582627 -0.02403348 -0.13257903 -0.15518038 0.027763914 -0.20116097 -0.20291397 -0.07884122 0.01715108 0.027116168 -0.008394355
165 0.041609928 -0.028456455 -0.17966229 -0.026711255 0.009815452 0.06590642 -0.015858842 0.11998411 -0.09871937 -0.024019632 0.2311748 -0.035001427 0.09061477 0.04799502 -0.15804638 0.1160745 0.0022974217 -0.08579697 -0.23819391 0.14451602 0.23640807 -0.1276317 -0.044034418 -0.15887102 -0.202906 0.06186514 -0.22338375 -0.23746666 -0.08169266 0.002816074 0.03546563 -0.01888467
166 0.052829064 -0.021673465 -0.17314725 -0.03648351 0.009062486 0.069685884 -0.030202307 0.08650619 -0.11102722 -0.01116654 0.1796936 -0.005441217 0.073545516 0.059173595 -0.15676625 0.10186394 -0.0114213955 -0.059384294 -0.23082839 0.12288211 0.2124159 -0.119199365 -0.03459827 -0.120460294 -0.1925113 0.053478733 -0.21159679 -0.20680295 -0.08438068 0.031520445 0.038834885 -0.037849497
167 0.043063134 -0.0019320083 -0.20118447 -0.0421877 -0.009696312 0.09723704 -0.023955476 0.11082489 -0.112217456 -0.03836301 0.24110997 -0.018015591 0.12506439 0.057680484 -0.16886955 0.14265266 0.0023358753 -0.085371464 -0.25179753 0.1392008 0.24175607 -0.12752405 -0.029668763 -0.14642051 -0.2250578 0.06548289 -0.2078493 -0.24785742 -0.1062922 0.023103544 0.03248583 -0.05770895
168 0.035850275 -0.030517804 -0.17432342 -0.031192094 -0.0117974775 0.07933026 -0.004997455 0.10302442 -0.1038741 -0.043033272 0.18716478 -0.0059926356 0.100227945 0.04340492 -0.13092166 0.091716915 -0.020485558 -0.050629098 -0.20992912 0.1230181 0.21332334 -0.1122463 -0.023504011 -0.14551407 -0.19686423 0.03643722 -0.20788471 -0.20455407 -0.10608109 0.027030874 0.016598454 -0.025556805
169 0.04606596 -0.02149177 -0.16997084 -0.02715426 -0.0029001876 0.082604535 -0.013853237 0.083731644 -0.12382254 -0.03925721 0.20007491 -0.014640991 0.070055835 0.026411789 -0.1295312 0.114049785 0.0120078605 -0.069688305 -0.19895175 0.11349723 0.20535158 -0.120816976 -0.025958365 -0.13478015 -0.18927237 0.04843026 -0.20662063 -0.21668848 -0.089430794 0.023275994 0.055967245 -0.008708807
170 0.024663134 0.0029872209 -0.15855567 -0.02534634 -0.012188114 0.08400808 -0.0010306888 0.08569836 -0.0964974 -0.041466586 0.19354974 -0.021039324 0.08602006 0.04336155 -0.12419947 0.11143887 -0.003756211 -0.0696032 -0.19293256 0.114818536 0.2033066 -0.097137734 -0.024933591 -0.109569564 -0.15609294 0.035957593 -0.16476615 -0.20551749 -0.07510903 0.01123462 0.017734958 -0.034180757
171 0.04938734 -0.0059067053 -0.16704407 -0.039734643 -0.024206406 0.09754047 -0.01802152 0.09186159 -0.08951265 -0.019280914 0.19225693 -0.03419848 0.10558521 0.0323717 -0.16366243 0.13201584 0.008291843 -0.063937135 -0.24553856 0.13677582 0.20993456 -0.14059895 -0.036098868 -0.13067925 -0.18437414 0.051740862 -0.19496049 -0.21184647 -0.066896886 0.011646886 0.035864726 -0.04954961
172 0.060019743 0.008490454 -0.16979143 -0.04339406 -0.026636938 0.104464225 -0.008707048 0.092272565 -0.11247733 -0.021850875 0.20333669 -0.008355341 0.10548532 0.04598777 -0.14705409 0.1388562 0.01680633 -0.06697465 -0.19743432 0.13419606 0.2024261 -0.11534357 -0.053053714 -0.12859702 -0.16589943 0.057321116 -0.17986165 -0.18761753 -0.10147966 0.0054381294 0.022206048 -0.033857793
173 0.056291413 -0.02299738 -0.1802383 -0.05706526 -0.003921474 0.10428823 -0.022478223 0.09317433 -0.12757725 -0.014193285 0.20600817 -0.0295515 0.09581716 0.047656365 -0.17342743 0.13611071 0.014766746 -0.08456828 -0.2454988 0.13355358 0.22027197 -0.13358055 -0.032185934 -0.15364121 -0.20088932 0.060422268 -0.21775894 -0.22549418 -0.09561105 0.03436721 0.050483014 -0.045042172
174 0.04639694 -0.011271308 -0.14495337 -0.05043549 -0.005798559 0.06827834 -0.02932162 0.09315747 -0.08683237 -0.02954003 0.1808698 -0.03207787 0.09392919 0.028025776 -0.14342885 0.12466638 0.0017069805 -0.06780592 -0.20732667 0.092835054 0.19042283 -0.11760691 -0.03457848 -0.12829696 -0.1643146 0.047761463 -0.18309069 -0.18887469 -0.08289051 0.027673552 0.030734062 -0.047474425
175 0.03807538 0.013895299 -0.13320658 -0.05967769 -0.018511211 0.092730485 -0.028117942 0.0945064 -0.0780525 -0.038027786 0.18042606 0.008011787 0.10025281 0.04225939 -0.12970369 0.10896216 0.02646517 -0.06269611 -0.18672456 0.11449486 0.17412221 -0.0895156 -0.0353383 -0.09714265 -0.14868501 0.071028195 -0.15196098 -0.18101604 -0.07411414 0.0026187554 0.036662724 -0.045457117
176 0.033562884 -0.016512722 -0.18069065 -0.045094818 0.0150718605 0.085248284 -0.0018892045 0.081715 -0.10842936 -0.03286784 0.20543279 -0.003552012 0.099220715 0.04243708 -0.17112401 0.1435256 -0.018053103 -0.07060058 -0.22639465 0.13094892 0.21958227 -0.13475674 -0.034458462 -0.14407486 -0.19302583 0.044355657 -0.22679119 -0.24874121 -0.08450118 -0.003187845 0.028872207 -0.0451462
177 0.05967104 0.013112531 -0.14237255 -0.04298554 -0.02061541 0.09169494 -0.019076992 0.06574624 -0.102500446 -0.033667922 0.19291927 -0.0023131878 0.099231675 0.024423704 -0.16110826 0.14413437 0.011713811 -0.058359563 -0.19227232 0.10933241 0.20086019 -0.12696919 -0.025331208 -0.109417185 -0.16196431 0.051365823 -0.17553926 -0.19474854 -0.10923619 -6.068662e-05 0.032659255 -0.06773159
178 0.037107978 0.001947648 -0.13249129 -0.034840524 0.00044558957 0.08299644 -0.018013014 0.091718726 -0.124222815 -0.041224107 0.19541772 -0.0007887318 0.080506824 0.034491487 -0.14400424 0.11077547 -0.008637309 -0.04740701 -0.19162856 0.103713274 0.17662892 -0.10525752 -0.02928831 -0.11275359 -0.15945707 0.035561718 -0.18219584 -0.20236231 -0.11353909 0.011926708 0.02661891 -0.035553735
179 0.046450853 -0.022085374 -0.1839995 -0.041529883 -0.015498287 0.085466355 -0.021787334 0.09972416 -0.08988151 -0.010704049 0.22022617 -0.014157055 0.08876554 0.031955864 -0.16128871 0.11523024 -0.0077654393 -0.0841553 -0.23585346 0.120550305 0.22769313 -0.10898982 -0.03840908 -0.12906556 -0.1833776 0.06643293 -0.20263429 -0.20180468 -0.094030686 0.032460157 0.03000028 -0.03662033
180 0.046031963 -0.007952386 -0.16853377 -0.06794831 -0.030236173 0.11948404 -0.01941501 0.09398662 -0.11005826 -0.016549146 0.19592321 -0.009035641 0.10221025 0.038039163 -0.16696191 0.151242 0.005271414 -0.06863413 -0.22493215 0.14154346 0.23888575 -0.13571055 -0.047472287 -0.11946541 -0.18749586 0.04998833 -0.19422941 -0.21035303 -0.114178434 0.0034947312 0.044965204 -0.051372763
181 0.05296707 -0.030034667 -0.18852235 -0.054305173 -0.0039514084 0.077441745 -0.03775032 0.09336209 -0.07828063 -0.022542797 0.2097043 -0.022757197 0.08977753 0.03838505 -0.17837815 0.13421625 0.00014739965 -0.080862895 -0.23364325 0.13816506 0.21658267 -0.13385649 -0.039486296 -0.13300204 -0.20007378 0.04352289 -0.20388396 -0.21407473 -0.07970675 0.0040170443 0.027465126 -0.030627904
182 0.06494853 -0.00682447 -0.17273948 -0.03821273 -0.02244169 0.10803377 -0.023690931 0.10425298 -0.13113777 -0.039071303 0.20803306 0.0040259003 0.12647645 0.061051033 -0.1565966 0.14590922 0.011930944 -0.063924365 -0.22568081 0.14141677 0.25454336 -0.13655943 -0.041004114 -0.13929284 -0.18397357 0.05160024 -0.19825909 -0.21237989 -0.10336866 0.022721717 0.033120804 -0.06410366
183 0.02834634 -0.034883235 -0.19075337 -0.019853046 0.014039648 0.069555454 -0.01504419 0.08901387 -0.114682436 -0.027517868 0.201745 -0.03954166 0.08687106 0.04131114 -0.1439282 0.11189307 -0.0061965757 -0.092630655 -0.22325045 0.11078457 0.21859714 -0.131235 -0.03652412 -0.13973917 -0.2032225 0.053129643 -0.22094971 -0.2198949 -0.076931626 0.016990218 0.032716956 -0.00437099
184 0.02723888 0.0003859594 -0.15779984 -0.04858593 0.0063513294 0.0726396 -0.03399831 0.0935701 -0.096603625 -0.03829114 0.1926155 -0.003067815 0.07416293 0.027019342 -0.14371467 0.11427837 0.006640388 -0.07126994 -0.2077285 0.12196298 0.21423568 -0.09657569 -0.04991782 -0.120566875 -0.16762201 0.04061514 -0.1929735 -0.17892149 -0.09167832 0.02513291 0.04480979 -0.037078314
185 0.04591558 -0.014778524 -0.16129683 -0.026068004 -0.011099257 0.059938822 -0.035927605 0.097525805 -0.0854588 -0.008064308 0.1910109 -0.039480984 0.07596 0.047347605 -0.14293887 0.098651476 0.011655076 -0.06871403 -0.22152606 0.110757716 0.20723233 -0.12551124 -0.014964551 -0.11586868 -0.18384025 0.051493146 -0.20382342 -0.17906734 -0.07749133 0.020200862 0.027509421 -0.021191293
186 0.061384797 -0.0065647843 -0.17325835 -0.05663464 -0.004371752 0.08312898 -0.0060360585 0.08887367 -0.12136015 -0.021105759 0.23008657 -0.004267327 0.10047822 0.038210146 -0.1792967 0.14234595 0.002876543 -0.08139126 -0.23958659 0.13106915 0.25202316 -0.122000426 -0.044433434 -0.15264542 -0.21822341 0.06259367 -0.2358385 -0.2462772 -0.092532575 0.0070643104 0.051486734 -0.036201023
187 0.05649813 -0.02472112 -0.14780793 -0.041342195 0.0054358966 0.10313132 -0.016452732 0.08353947 -0.12391465 -0.027647708 0.20622279 -0.0046072705 0.078032166 0.02763247 -0.15440166 0.10081533 0.016036877 -0.0835677 -0.20484391 0.12900865 0.21088499 -0.121109165 -0.04080381 -0.1352591 -0.18360943 0.04324787 -0.20042853 -0.21383418 -0.07469217 0.017364198 0.034495424 -0.026014702
188 0.039683707 -0.0038308038 -0.15828706 -0.0459832 0.014219656 0.07139163 -0.020836975 0.08062065 -0.10344281 -0.028713075 0.17931736 -0.007775359 0.10114075 0.03162499 -0.15338129 0.09384872 -0.017667376 -0.05392869 -0.19143137 0.12390081 0.19710709 -0.1225537 -0.03766835 -0.13254634 -0.16311924 0.021123493 -0.18452884 -0.20548044 -0.098732054 0.008054971 0.026657192 -0.041018166
189 0.033412095 -0.011430004 -0.18446945 -0.047395475 -0.013153554 0.05977225 -0.024534026 0.09841475 -0.06761415 -0.018163828 0.19724442 -0.037881974 0.11341348 0.027307611 -0.16421343 0.11199636 0.013470703 -0.08372066 -0.23564968 0.115330525 0.21915027 -0.13196178 -0.04157307 -0.1487827 -0.19636394 0.062493168 -0.215244 -0.2084139 -0.06967461 -0.003555555 0.02721179 -0.050343603
190 0.0468483 -0.0143852355 -0.1853043 -0.050500832 -0.012032189 0.076343566 -0.030715138 0.0847069 -0.068419166 -0.0046795323 0.2173736 -0.044880673 0.10879164 0.049561314 -0.16204649 0.14196597 0.022867393 -0.09095409 -0.22374114 0.10334354 0.21707444 -0.13406232 -0.057233427 -0.15039122 -0.19937013 0.043518156 -0.21415539 -0.22225958 -0.06510775 0.0068166894 0.018209718 -0.05051317
191 0.0484238 -0.005912531 -0.18652976 -0.06163218 -0.015419423 0.08352477 -0.0116622755 0.112978436 -0.08182128 -0.0061023952 0.19808744 -0.017237078 0.08385852 0.043363795 -0.15349586 0.106728 0.0014022081 -0.063695095 -0.2137582 0.12469094 0.21503255 -0.120889425 -0.043618698 -0.12704298 -0.18644826 0.07002514 -0.19165754 -0.18336914 -0.08865885 0.018804044 0.007860394 -0.037140377
192 0.052899987 0.014714944 -0.15831636 -0.03761247 -0.0024931096 0.11884486 -0.013745632 0.07768499 -0.12088094 -0.042477824 0.20806187 0.008325465 0.09522185 0.05091858 -0.14937879 0.115502484 0.004683481 -0.059982188 -0.19403818 0.118063964 0.21324068 -0.11640887 -0.037954915 -0.11455519 -0.17434175 0.056199796 -0.1923106 -0.19180545 -0.10215257 0.02351904 0.03847967 -0.04424673
193 0.05146782 -0.00040906967 -0.17082386 -0.03985347 -0.013041767 0.08237664 -0.036460336 0.07315286 -0.055929 -0.010833621 0.17340164 -0.039932244 0.10727501 0.021494806 -0.15525477 0.11570119 0.0033391356 -0.08225109 -0.21600258 0.11505781 0.20538318 -0.10385886 -0.061862648 -0.113311805 -0.17605916 0.050062526 -0.16500703 -0.184659 -0.07667241 0.012991919 0.018441122 -0.038043752
194 0.046610393 -0.03709404 -0.16625005 -0.046229433 0.012015877 0.071369626 -0.016094627 0.09327171 -0.103407055 -0.03223367 0.20079486 9.379121e-05 0.0830555 0.040716864 -0.14290759 0.092355154 -0.018519599 -0.052972097 -0.2188588 0.13041022 0.19112721 -0.11235235 -0.030175159 -0.15123701 -0.18490702 0.04975627 -0.2145763 -0.20467326 -0.0837925 0.016275011 0.048322894 -0.032875504
195 0.06414522 -0.021485152 -0.16958277 -0.060443226 -0.013303907 0.106467865 -0.010026034 0.10113142 -0.1031199 -0.043211065 0.2075926 -0.0024693357 0.08188506 0.057856765 -0.15556942 0.11110148 -0.011120643 -0.07444492 -0.21951811 0.13879496 0.21127532 -0.12612581 -0.026180716 -0.14437456 -0.1941396 0.054119255 -0.20568687 -0.22855401 -0.10826794 0.01390277 0.023300512 -0.02729931
196 0.05009875 -0.034958854 -0.18706651 -0.039189383 -0.011538125 0.10153893 -0.013663153 0.10471737 -0.11489016 -0.01363393 0.21097222 -0.016393457 0.088211596 0.031913962 -0.19114338 0.1483962 0.007702309 -0.084446594 -0.24866866 0.14336665 0.2514167 -0.15556249 -0.036556814 -0.14629538 -0.20741558 0.07292053 -0.2420366 -0.23621206 -0.09737039 0.029692177 0.05307441 -0.037774336
197 0.043984648 -0.014001552 -0.1383313 -0.052871406 -0.0074930857 0.089650735 -0.0044775666 0.07422004 -0.06966842 -0.026992634 0.14934579 0.009983294 0.086617514 0.046229538 -0.11096971 0.08962773 0.0015213902 -0.0460096 -0.16759153 0.10605342 0.15281007 -0.09102989 -0.020111738 -0.09216876 -0.12796865 0.0287549 -0.15088882 -0.15208569 -0.07180536 0.0054091117 0.015759181 -0.052044597
198 0.055006575 -0.025879519 -0.17230399 -0.043963015 0.011588174 0.07723112 -0.029343333 0.11184933 -0.11734819 -0.024378002 0.20193712 -0.01771587 0.08865212 0.024517762 -0.16624056 0.13539533 0.010770153 -0.08557931 -0.24672778 0.117661126 0.2238954 -0.12943548 -0.03898858 -0.13888544 -0.17924109 0.051839642 -0.22677392 -0.22516179 -0.09754832 0.024347069 0.050627857 -0.044003405
199 0.02171294 -0.018885175 -0.16942002 -0.03387726 0.0036064417 0.07412134 -0.016450172 0.111280076 -0.0947764 -0.023018302 0.20196016 0.015096804 0.0979405 0.06370268 -0.13941625 0.10471388 -0.023773542 -0.080261126 -0.22034605 0.13894014 0.22114904 -0.13342871 -0.017880142 -0.12662391 -0.17896649 0.040865455 -0.22140227 -0.23170172 -0.10600749 0.02145233 0.035007115 -0.029949272
200 0.041086297 -0.042597774 -0.15855566 -0.035343353 0.012823813 0.064873695 -0.03148846 0.09128949 -0.07681929 -0.0049159885 0.18456341 -0.009462666 0.072689414 0.054611612 -0.13780606 0.1115923 0.0019319983 -0.07137115 -0.22036979 0.103818305 0.20657389 -0.13795088 -0.021670347 -0.14656554 -0.20668277 0.051094275 -0.19810379 -0.20377943 -0.05770857 0.0065413625 0.020948794 -0.0352628
201 0.032155722 -0.009996966 -0.1513175 -0.05247949 -0.00075460016 0.08882324 -0.015982313 0.07973657 -0.11635177 -0.041381206 0.20337816 0.017414844 0.11363192 0.057288937 -0.1526468 0.12751265 0.0050351066 -0.049853764 -0.17894475 0.13076761 0.1955718 -0.11006677 -0.030804781 -0.12895323 -0.1616237 0.040794875 -0.18109062 -0.21639383 -0.1190893 0.02347237 0.036322035 -0.036027025
202 0.052299112 -0.012143436 -0.19014288 -0.054584395 -0.0064522936 0.07280997 -0.03335893 0.11691063 -0.104301415 -0.028858338 0.19911554 -0.010142213 0.0894559 0.039391927 -0.16750586 0.12821935 0.010474007 -0.09417833 -0.24113901 0.12657805 0.22700162 -0.12986739 -0.04019977 -0.13463384 -0.19362405 0.06744581 -0.2265846 -0.23299073 -0.0883363 0.014237166 0.027660297 -0.044890005
203 0.06784288 0.012287692 -0.16874062 -0.048061755 -0.009117443 0.11095555 -0.0026554742 0.094318695 -0.11715756 -0.05315746 0.23865423 0.009596428 0.12658007 0.048394505 -0.18123467 0.15018599 -0.022977378 -0.06515343 -0.22149684 0.15183833 0.24802172 -0.12260875 -0.038972862 -0.13964686 -0.19904946 0.063455716 -0.2096911 -0.23222171 -0.12825727 0.0005998317 0.031335168 -0.04775254
204 0.055680357 -0.026148738 -0.18545535 -0.041435085 0.0092310505 0.06371253 -0.015319721 0.11357506 -0.11644122 -0.009505231 0.21134563 -0.009146739 0.076388575 0.050373625 -0.15381019 0.12044467 -0.022710862 -0.086304165 -0.23960969 0.1387127 0.24429527 -0.13042477 -0.031639427 -0.14994723 -0.19848694 0.067690544 -0.24079156 -0.23006076 -0.10341008 0.024392616 0.038169637 -0.027307788
205 0.030992791 -0.027563917 -0.16346338 -0.032413557 -0.00964566 0.0757695 -0.02933702 0.09342671 -0.07975433 -0.013009453 0.19068524 -0.031061657 0.0791707 0.03146919 -0.15517738 0.096585326 -0.009789292 -0.068813816 -0.22810052 0.11821629 0.19557302 -0.11547123 -0.045019113 -0.13618104 -0.17823318 0.069013484 -0.2091696 -0.21019964 -0.077380575 0.0013485196 0.043342993 -0.025937967
206 0.058759928 -0.01784734 -0.17970088 -0.049910948 0.009957891 0.11595484 -0.015483704 0.10166309 -0.1299575 -0.0447308 0.2164116 -0.02280729 0.11144867 0.050672904 -0.16431107 0.14762998 -0.0023256897 -0.07909966 -0.24074303 0.120773055 0.22297278 -0.1407167 -0.02416911 -0.14151302 -0.20899664 0.0438529 -0.2191698 -0.22802092 -0.11423639 0.022980532 0.053917587 -0.040022157
207 0.06626282 -0.007969937 -0.21861398 -0.06487659 -0.01576766 0.09939596 -0.038630567 0.09601117 -0.06882897 -0.028934622 0.21621363 -0.05321652 0.14756724 0.025701387 -0.19684425 0.16689767 0.038741987 -0.08173494 -0.26427713 0.13795099 0.26409552 -0.16547157 -0.06697806 -0.16520575 -0.22196552 0.086378336 -0.21961935 -0.22596644 -0.07581445 -0.01015524 0.03512842 -0.072144575
208 0.034586735 -0.01316532 -0.16452417 -0.036638513 0.0061868103 0.08580238 -0.030343799 0.10140626 -0.09654933 -0.014424078 0.19157802 -0.02826392 0.06981627 0.05053905 -0.15398806 0.12496576 0.018010048 -0.07277863 -0.23243041 0.10720693 0.21381184 -0.1299021 -0.03029108 -0.12112875 -0.19028482 0.063371934 -0.19069588 -0.22183193 -0.0655791 0.02874225 0.04076255 -0.03331882
209 0.05559264 -0.014934561 -0.1431037 -0.043121967 0.011309272 0.090730995 -0.018909464 0.10697601 -0.12301412 -0.028544588 0.16852984 -0.007916952 0.08178196 0.031319108 -0.15258019 0.08772432 0.0031985482 -0.05175896 -0.18616988 0.104620814 0.18405403 -0.1073972 -0.028853817 -0.11593085 -0.16250128 0.060316686 -0.19817264 -0.19980721 -0.10125923 0.02482399 0.04665215 -0.012552342
210 0.035302415 -0.019458892 -0.15141393 -0.026166055 -0.014564097 0.06814352 -0.025154423 0.08744922 -0.08971145 -0.028525148 0.16457433 -0.02707277 0.08993169 0.03693891 -0.12794329 0.10872436 -0.0098022865 -0.06754826 -0.20346823 0.09560244 0.16647749 -0.11624512 -0.048127532 -0.11923781 -0.15536408 0.0456854 -0.1649427 -0.17642227 -0.08474991 0.01156718 0.016435584 -0.036019556
211 0.044394094 -0.016545298 -0.19002154 -0.051110584 -0.023184896 0.08756518 -0.022799833 0.11104303 -0.11860101 -0.021808872 0.20367076 -0.024373036 0.10321148 0.039054807 -0.14685471 0.13088258 -0.0059970724 -0.07206945 -0.22952864 0.14345807 0.21757431 -0.113492735 -0.049990036 -0.14331222 -0.19198507 0.046657313 -0.20647751 -0.2181951 -0.10204094 0.012780734 0.029911056 -0.04222194
212 0.04519297 -0.02145051 -0.19087578 -0.040815204 -0.0021761358 0.105502464 -0.009004008 0.11969007 -0.10610226 -0.011455835 0.2344201 -0.031644717 0.088491045 0.03632771 -0.19710168 0.14242505 0.0044762683 -0.088781774 -0.24968137 0.14704096 0.24372248 -0.1544814 -0.041722026 -0.15851656 -0.21056676 0.07868571 -0.23214711 -0.2530558 -0.102931805 0.021504767 0.031814694 -0.04525556
213 0.048057888 -0.0065051834 -0.14918613 -0.042538423 -0.012603215 0.0753794 -0.03040982 0.08480244 -0.08746568 -0.01969931 0.19629696 -0.020788953 0.101289116 0.053510595 -0.14684525 0.10960436 -0.0049523725 -0.08061797 -0.21058391 0.10223597 0.21556981 -0.1085103 -0.052708536 -0.11407354 -0.17682447 0.041047744 -0.19724442 -0.20405596 -0.0979924 0.00826271 0.030776167 -0.023228353
214 0.038432963 0.014078164 -0.1478746 -0.043089375 -0.0053799534 0.09740845 -0.016591458 0.07274192 -0.090471335 -0.03913735 0.18989667 -0.011427103 0.10198276 0.031109037 -0.15150945 0.11014215 0.0011973289 -0.055802483 -0.189696 0.118721314 0.1897254 -0.102780424 -0.042860605 -0.12001916 -0.14168672 0.030184118 -0.16019958 -0.1954336 -0.09166731 0.012322779 0.033468142 -0.060779225
215 0.040399972 -0.005942045 -0.17445235 -0.056432605 -0.016095554 0.077102415 -0.0031715082 0.0934667 -0.11700029 -0.027188707 0.200146 0.0036787626 0.10358399 0.03931272 -0.15695162 0.104683004 -0.01000199 -0.068798415 -0.20030853 0.12770268 0.21588083 -0.1326581 -0.04310885 -0.13379778 -0.16318911 0.04248448 -0.19248384 -0.20199533 -0.08915012 0.021134136 0.033129834 -0.023531577
216 0.06504973 -0.00052529987 -0.18532851 -0.05273774 0.009916218 0.103411235 -0.006519049 0.10393999 -0.12358163 -0.05291051 0.24931318 -0.011220905 0.13548703 0.03898418 -0.18500653 0.15967397 0.0074490327 -0.07670997 -0.2634577 0.14387855 0.27093846 -0.15931062 -0.041880466 -0.15730917 -0.2401435 0.047438446 -0.22365944 -0.24936141 -0.10804835 0.014333534 0.05256951 -0.032754116
217 0.043777555 -0.013685129 -0.17226599 -0.048120126 -0.002084794 0.06773165 -0.015741684 0.07990748 -0.08762622 -0.013720192 0.20160577 -0.030834153 0.106001645 0.020482324 -0.16456932 0.13464266 0.023000449 -0.07001149 -0.23857273 0.10514712 0.20792498 -0.14078848 -0.047834173 -0.1372116 -0.20976911 0.07340458 -0.1983809 -0.20729597 -0.053382225 0.02215635 0.016107598 -0.04197833
218 0.052639596 -0.025524013 -0.16436441 -0.04824024 -0.0050299466 0.06643228 -0.01682801 0.09175751 -0.10125357 -0.021906178 0.18976556 0.0042201118 0.100211 0.047436453 -0.13394204 0.117913894 -5.8144546e-05 -0.07557724 -0.21087399 0.12623407 0.21143204 -0.13566522 -0.022038452 -0.12329046 -0.18041907 0.040892944 -0.20237455 -0.20110875 -0.08565545 0.013481845 0.04992285 -0.02749703
219 0.029137472 -0.0018298032 -0.15204227 -0.030460449 -0.0028087362 0.08658091 -0.020275522 0.079228416 -0.09998278 -0.016405612 0.14422566 -0.030896343 0.07036044 0.04152616 -0.13019626 0.10979077 0.0009256023 -0.049937855 -0.17084216 0.09399588 0.17244971 -0.10358465 -0.023041002 -0.11097857 -0.14949693 0.061140317 -0.1614932 -0.17284417 -0.07456109 0.032357175 0.029644096 -0.021159666
220 0.044536054 -0.021189753 -0.15560925 -0.039725743 -0.0138214715 0.0641214 -0.009660751 0.06652868 -0.091836564 -0.024091294 0.18654191 -0.02235093 0.08114633 0.019027678 -0.122339115 0.113122515 0.024137892 -0.057386875 -0.1994378 0.10497932 0.20192486 -0.120726176 -0.03157621 -0.12287305 -0.15995212 0.05156737 -0.15603352 -0.17567186 -0.06876865 0.008859167 0.036022536 -0.033013914
221 0.038808744 -0.03382818 -0.1843399 -0.03037995 0.030771736 0.08191348 -0.0031828952 0.11005315 -0.14266376 -0.03364209 0.23676832 0.009015184 0.09047804 0.042809848 -0.16371751 0.1087451 -0.01381725 -0.08303858 -0.23687504 0.1520991 0.2326217 -0.14061324 -0.02105364 -0.1646091 -0.2062619 0.022975849 -0.22694398 -0.22480273 -0.105503164 0.034841746 0.053753972 -0.012064787
222 0.058986925 -0.0015367016 -0.17155336 -0.03404084 0.0034011933 0.09144854 -0.008128472 0.09337561 -0.11300559 -0.026968867 0.21402043 -0.0032076275 0.12592989 0.04987945 -0.18261331 0.13065895 0.0015056699 -0.06069522 -0.21994822 0.12852158 0.23584534 -0.12475075 -0.045275997 -0.15587327 -0.2050436 0.049222358 -0.20938976 -0.22055143 -0.10204498 0.013529515 0.027974747 -0.033977263
223 0.04853187 -0.020348893 -0.17184149 -0.042911388 -0.010910859 0.05265474 -0.0326982 0.07379534 -0.09820229 -0.028442547 0.19713703 -0.021895764 0.08039283 0.047154605 -0.15134987 0.101403154 -0.0080659995 -0.06392127 -0.20221102 0.119430006 0.18822482 -0.122312956 -0.02023998 -0.12004998 -0.18457744 0.05630892 -0.19223191 -0.19833471 -0.06134954 0.025567045 0.03530175 -0.020406578
224 0.036775157 -0.027238917 -0.15666498 -0.033888172 -0.011879877 0.05035952 -0.024284258 0.07562257 -0.06316502 -0.0011179512 0.14895543 -0.04135048 0.0687018 0.030737106 -0.12395783 0.08428587 0.0026905183 -0.06251266 -0.2155298 0.08838364 0.17970313 -0.092979066 -0.050220937 -0.11544331 -0.15091482 0.06702262 -0.16395324 -0.18024246 -0.051947307 0.00985705 0.026699688 -0.017607631
225 0.03368248 -0.009299219 -0.16571644 -0.029903425 -0.0079444125 0.07415626 -0.020321779 0.07625578 -0.10490846 -0.032757178 0.19895867 -0.009816915 0.0803705 0.055839766 -0.15026848 0.097210586 -0.010670828 -0.04984448 -0.20408683 0.105332345 0.20405547 -0.10924174 -0.039297234 -0.1122787 -0.18828651 0.05055741 -0.17786995 -0.2019238 -0.076260656 0.0122526325 0.03775176 -0.032558862
226 0.042606335 -0.02062128 -0.17327371 -0.05916333 -0.006502703 0.09743687 -0.01748643 0.11263093 -0.13024738 -0.03122391 0.2172212 0.002728775 0.10084668 0.059495114 -0.14931184 0.11818506 -0.006736127 -0.05960379 -0.21421343 0.1485728 0.21828534 -0.13583586 -0.014632008 -0.14999309 -0.20728506 0.06205195 -0.22031337 -0.22954611 -0.10653424 0.0077843308 0.053084124 -0.022605406
227 0.038039654 -0.015685773 -0.16251285 -0.037100364 0.011985223 0.09772437 0.0055424734 0.098171376 -0.1231835 -0.04891284 0.18300308 0.008985346 0.08439471 0.03329417 -0.14882421 0.08470754 -0.009976331 -0.06647064 -0.19801639 0.116750374 0.19664513 -0.10578623 -0.0061272755 -0.1312731 -0.15044774 0.04449968 -0.1885731 -0.19969693 -0.095338 0.015552908 0.04800905 -0.023010975
228 0.025990434 -0.0115198735 -0.15381204 -0.056372195 -0.012723067 0.092516035 -0.028832356 0.10686632 -0.0743438 -0.011926572 0.18871543 -0.038767897 0.07013993 0.021484701 -0.14344636 0.11374887 0.011671821 -0.08252557 -0.20971675 0.10404072 0.17690407 -0.09974171 -0.03213245 -0.114062846 -0.17307833 0.053267714 -0.19284494 -0.20151906 -0.06625576 0.026564268 0.02827975 -0.020723699
229 0.04851492 -0.026892478 -0.14514385 -0.022222433 -0.00965645 0.060727537 -0.025817009 0.071935214 -0.06357646 -0.0021417218 0.18220744 -0.033483945 0.065019324 0.03892149 -0.12248861 0.1160765 -0.006218355 -0.052781686 -0.19588423 0.09149504 0.18800963 -0.11524435 -0.04378544 -0.10922907 -0.16133112 0.04818845 -0.17433566 -0.17728516 -0.08095184 0.025326647 0.035649016 -0.036604263
230 0.026650522 -0.018162156 -0.18513344 -0.044123407 -0.01212962 0.08030923 -0.034176752 0.09019068 -0.09635282 0.0030325863 0.18122493 -0.035145827 0.06854278 0.019393863 -0.13723984 0.1059033 0.013104182 -0.06349258 -0.21748963 0.10970635 0.21438834 -0.12564749 -0.025200207 -0.13363966 -0.16715549 0.06564581 -0.18539116 -0.20896775 -0.06297593 0.03199298 0.026346447 -0.017764969
231 0.028323693 -0.022948738 -0.13708533 -0.04407502 0.012476085 0.0712791 -0.0124600865 0.08672215 -0.09249935 -0.039344158 0.19327597 -0.007742522 0.08468071 0.029691579 -0.15051953 0.083878875 -0.01693806 -0.05632445 -0.1868939 0.119690955 0.20038897 -0.10343338 -0.026711466 -0.11088291 -0.14574216 0.051670894 -0.19466554 -0.18881677 -0.09699071 0.022507973 0.03708442 -0.019192912
232 0.031182127 -0.016923767 -0.17748886 -0.033730637 0.012908012 0.09504809 -0.00895229 0.09410123 -0.10954998 -0.026694428 0.20436883 -0.004441466 0.12002197 0.04891874 -0.16201337 0.13425477 0.013256318 -0.0634931 -0.24083695 0.1192918 0.24543045 -0.15642133 -0.05165611 -0.14970121 -0.22071281 0.055753354 -0.23317416 -0.24245296 -0.09206774 0.015111174 0.026030585 -0.023738734
233 0.034594342 -0.04320975 -0.15516631 -0.02951534 -0.010198723 0.06330354 -0.016842349 0.079938546 -0.08709898 -0.01387326 0.1988479 -0.028344069 0.05781502 0.024321917 -0.13931811 0.0992306 0.00831894 -0.09003997 -0.21207315 0.11555729 0.21139272 -0.11353915 -0.0219077 -0.11565591 -0.17233206 0.058733374 -0.18888626 -0.19787042 -0.065470695 0.031237131 0.037901536 -0.015651152
234 0.05208048 0.003475308 -0.17240806 -0.042885877 -0.01625165 0.0892912 0.0004440385 0.07467442 -0.09683735 -0.05094881 0.20639199 -0.0008247847 0.107911095 0.05114367 -0.14056344 0.11052369 0.0061782193 -0.07034259 -0.21225803 0.13143083 0.2318374 -0.12540588 -0.047803212 -0.14536902 -0.1857757 0.025840139 -0.19727671 -0.19581075 -0.10828748 0.02758463 0.048010543 -0.047924824
235 0.06324595 -0.007919482 -0.17434825 -0.03571705 0.0070200674 0.10007447 -0.019395309 0.08662402 -0.09732759 -0.034644853 0.20920172 -0.012624472 0.08945998 0.04047049 -0.16537458 0.13101734 -0.0009226589 -0.0820895 -0.21178171 0.1158174 0.23045601 -0.1392751 -0.041893315 -0.13107298 -0.19442654 0.05597011 -0.20290902 -0.23855814 -0.11742102 -0.0037864214 0.058197323 -0.053783454
236 0.056630097 0.0013621772 -0.15787452 -0.033218477 0.0007195782 0.08254603 -0.013869528 0.09455981 -0.06819572 -0.026658766 0.2045963 -0.012975899 0.12579522 0.03629502 -0.14851777 0.11817282 0.012679223 -0.059099652 -0.2289863 0.1259866 0.22625892 -0.110281356 -0.03406639 -0.12533237 -0.19674827 0.048268635 -0.18459694 -0.22031707 -0.0967171 0.01715868 0.026966017 -0.035514303
237 0.046811085 -0.0051920675 -0.15154321 -0.04498174 -0.015974563 0.09323632 0.009022161 0.10029827 -0.10163291 -0.035201143 0.18067634 -0.01044218 0.09245003 0.04966536 -0.14663085 0.09882226 -0.008088048 -0.04862696 -0.19557457 0.113326676 0.19587323 -0.120594814 -0.020830397 -0.12619321 -0.16801134 0.031251 -0.19365492 -0.19029124 -0.09103886 0.021979596 0.04448326 -0.040908396
238 0.02281103 -0.03514006 -0.14017801 -0.019262688 -0.011101179 0.07032914 -0.015351002 0.07604741 -0.080171846 -0.029354587 0.1605111 -0.008780627 0.084748514 0.049117807 -0.12749395 0.081724316 -0.0041916384 -0.06886243 -0.19839649 0.11507063 0.19358292 -0.116595864 -0.038901243 -0.11141052 -0.1522667 0.03256719 -0.17998458 -0.18569943 -0.081639186 0.02094697 0.031160234 -0.018988017
239 0.028835919 -0.019449305 -0.13144505 -0.028957628 0.019002909 0.06290767 0.00894625 0.08591904 -0.10654655 -0.04395123 0.16425923 0.030725965 0.08246803 0.03952097 -0.10707875 0.082250066 -0.013681231 -0.036455926 -0.15657407 0.084948756 0.18675935 -0.0969258 -0.017883826 -0.11207206 -0.14730078 0.011133996 -0.16168417 -0.18392397 -0.09499391 0.013646018 0.027362842 -0.03331327
240 0.054826442 -0.003572324 -0.17033432 -0.05360325 -0.005974325 0.087132536 -0.028836858 0.09610589 -0.09996603 -0.014999434 0.20662338 -0.022025598 0.07158814 0.032284845 -0.14651358 0.13239084 0.0026291008 -0.05917229 -0.20964344 0.111155145 0.20735694 -0.12321315 -0.045724776 -0.14132074 -0.1821273 0.058962315 -0.19985418 -0.19981861 -0.0696123 0.011043172 0.040012248 -0.038971744
241 0.04409993 0.001960327 -0.16823347 -0.062503584 -0.0010521023 0.1103636 -0.016669309 0.08235658 -0.085526094 -0.039913613 0.16120818 -0.018379284 0.10447356 0.020259086 -0.14143191 0.113030426 0.008852659 -0.045034155 -0.18641876 0.11467313 0.17830491 -0.10386016 -0.058784876 -0.10542512 -0.17073168 0.05836625 -0.17407614 -0.18916197 -0.0662089 0.015896266 0.043580912 -0.064444624
242 0.041601695 -0.026596583 -0.17150117 -0.037417185 0.014440909 0.10674603 -0.018776562 0.111776054 -0.11002269 -0.044099968 0.20555533 0.010063218 0.06562586 0.032919243 -0.13964705 0.09543226 -0.010365598 -0.060905606 -0.21406595 0.11874264 0.21121542 -0.11341025 -0.012750038 -0.14686061 -0.18361336 0.03955661 -0.1902825 -0.19971259 -0.092628576 0.040407278 0.036072195 -0.023546668
243 0.03680579 -0.01977566 -0.16806696 -0.044358626 -0.02118939 0.099616006 -0.008848983 0.11019673 -0.117075466 -0.029411778 0.20042302 -0.005319506 0.082174785 0.04888564 -0.15666288 0.116192035 0.0031913884 -0.06706617 -0.21632014 0.13351655 0.21956225 -0.11619342 -0.027767051 -0.12470257 -0.18237695 0.0639277 -0.19692393 -0.21477458 -0.09165654 0.038648877 0.04785635 -0.035242118
244 0.03479311 -0.014875225 -0.17099589 -0.027890062 0.0056982427 0.09031062 -0.014256674 0.07382178 -0.09452334 -0.03257844 0.19087657 0.012530505 0.11190497 0.041701294 -0.15521578 0.12764688 -0.0033640573 -0.06781081 -0.19081175 0.124744944 0.2077087 -0.13484807 -0.042008206 -0.12710588 -0.17889386 0.053294737 -0.17296046 -0.20797895 -0.1001249 0.0040076496 0.0450257 -0.036520112
245 0.042086672 -0.00072071876 -0.1804952 -0.030826764 -0.020867657 0.08933575 -0.016773444 0.080217816 -0.076058045 -0.014642126 0.21893287 -0.041661117 0.10589367 0.050428547 -0.17307584 0.13669313 0.021853274 -0.08880505 -0.2382906 0.12738179 0.2534971 -0.14266458 -0.050915986 -0.15651667 -0.2259437 0.055562254 -0.22115633 -0.23092306 -0.06951103 0.0068350662 0.02620906 -0.05272138
246 0.05009415 -0.025784649 -0.17039466 -0.04505799 0.015662877 0.08694578 -0.0023645756 0.112465136 -0.111700885 -0.05482371 0.22287793 0.0108117275 0.09984013 0.05170956 -0.1586042 0.11635248 -0.022450197 -0.07833173 -0.22628005 0.13795722 0.24752837 -0.12409579 -0.014369796 -0.14567539 -0.19997238 0.05341521 -0.22413708 -0.23871303 -0.10269808 0.011400938 0.042583134 -0.024284326
247 0.041345008 0.011740903 -0.16183114 -0.049653932 0.001141439 0.08427235 -0.009840396 0.09843228 -0.09598276 -0.05190431 0.18743432 -0.011863784 0.1186411 0.052391905 -0.17056954 0.12333665 0.008227159 -0.07254336 -0.19914944 0.12395848 0.20792586 -0.12451894 -0.027508842 -0.14483745 -0.2024565 0.049303 -0.20028816 -0.1944376 -0.104298726 -0.0037696946 0.038249563 -0.050210193
248 0.045175217 -0.02705439 -0.14432006 -0.01919536 -0.003350028 0.07408328 -0.011149797 0.08492304 -0.0754934 -0.009026579 0.14829685 -0.01687178 0.066172265 0.043485463 -0.1229454 0.09095967 0.005598929 -0.053662468 -0.17363866 0.08488703 0.17790619 -0.09104759 -0.04275574 -0.10309263 -0.16234978 0.055189777 -0.1704807 -0.1804779 -0.06815611 0.019287625 0.021758258 -0.026059568
249 0.03478198 -0.019063396 -0.18431588 -0.03659549 0.010560761 0.091322616 -0.01156991 0.11025845 -0.09679162 -0.010759802 0.19324897 -0.024046749 0.0818438 0.061009005 -0.1358022 0.11358346 -0.0025450492 -0.06110126 -0.21942113 0.13573436 0.19834097 -0.13594717 -0.020657074 -0.15173933 -0.1853181 0.06333331 -0.19095051 -0.20365772 -0.07294629 0.009992741 0.04271856 -0.01886241
250 0.049797997 -0.001970552 -0.14321393 -0.057455122 -0.0105712395 0.08672793 -0.017064873 0.095328115 -0.075991474 -0.0063920887 0.16453499 -0.014520778 0.08817257 0.035441753 -0.13152932 0.11947631 0.0065847337 -0.046591695 -0.197748 0.11010534 0.19992213 -0.11393624 -0.04000121 -0.10524772 -0.16229008 0.06023524 -0.16699384 -0.18865602 -0.06716278 -0.0034704828 0.021230506 -0.041266896
251 0.03621276 -0.012041574 -0.17552935 -0.040405586 -0.0039282846 0.100931 -0.025735263 0.11666494 -0.11108489 -0.024930596 0.21352203 -0.023142232 0.095824175 0.041656204 -0.15485862 0.11015096 0.017443296 -0.07010921 -0.24342567 0.14180219 0.22889069 -0.12459688 -0.03127193 -0.13539186 -0.18952237 0.061380286 -0.21532018 -0.22744755 -0.0799865 0.01983338 0.023208432 -0.04018535
252 0.051363286 0.027422516 -0.14106326 -0.058968376 -0.018778428 0.12504761 0.0017271787 0.075679064 -0.10309158 -0.040298358 0.16868843 -0.014433796 0.10503796 0.022524476 -0.16183835 0.14117663 0.005472091 -0.061926205 -0.2002082 0.10948634 0.19040725 -0.11176979 -0.035549775 -0.12433901 -0.14835994 0.0386601 -0.16736208 -0.19198243 -0.10778278 0.0030313586 0.036829155 -0.050006814
253 0.041560177 -0.029487325 -0.16385014 -0.05664515 -0.0019169772 0.10324833 -0.005601004 0.09953376 -0.11523789 -0.031744126 0.1923214 -0.0008303863 0.08642264 0.053009447 -0.14959957 0.09423074 -0.012134593 -0.052042156 -0.19655287 0.1329772 0.18916208 -0.09614358 -0.01294847 -0.12918365 -0.1710463 0.049338065 -0.18423443 -0.20835286 -0.107941344 0.006678461 0.04804491 -0.02418889
254 0.033111412 -0.014213601 -0.18429282 -0.04753084 -0.01207154 0.089963995 -0.03023507 0.10626234 -0.10013112 -0.041312512 0.20254174 -0.015992848 0.09758889 0.048195526 -0.16451143 0.11178314 0.008156729 -0.07457121 -0.21944863 0.105497964 0.21852392 -0.11657913 -0.030584669 -0.13954642 -0.19564895 0.04712804 -0.1748115 -0.2109367 -0.09526409 0.005814231 0.033473503 -0.040468246
255 0.047617234 -0.012385762 -0.16085263 -0.054931674 -0.020045243 0.07979743 -0.0041779205 0.07612147 -0.09796402 -0.0183864 0.17145309 -0.032890923 0.0766714 0.03696063 -0.12687175 0.11344121 0.009733546 -0.053935908 -0.21176341 0.09975015 0.16821426 -0.10049342 -0.033829734 -0.13069367 -0.14768264 0.062519304 -0.15945715 -0.17168646 -0.07331338 0.023878263 0.03753637 -0.043835882
256 0.036010522 -0.014184307 -0.18377519 -0.03371774 0.0030256961 0.1008269 -0.009037777 0.099546336 -0.11805326 -0.018847048 0.21657449 -0.0010995166 0.07606533 0.043908507 -0.17523302 0.12593412 -0.011946563 -0.073678695 -0.2150783 0.13230783 0.23122996 -0.12631997 -0.047509573 -0.14927004 -0.18877614 0.047845952 -0.22131366 -0.23769166 -0.11127479 0.031808686 0.03913004 -0.03806079
257 0.03479698 -0.009458214 -0.14414017 -0.016971532 -0.00510314 0.062811255 -0.021568237 0.061975956 -0.070544966 -0.0031819511 0.14778121 -0.008676635 0.056834012 0.03128471 -0.115548976 0.08320536 -0.015234787 -0.046962693 -0.1879921 0.08676509 0.17815806 -0.100190096 -0.024359545 -0.10872775 -0.14306283 0.05100411 -0.1469341 -0.16448295 -0.05259695 0.013631646 0.03719044 -0.029055975
258 0.041655708 -0.038908537 -0.16386132 -0.051585842 0.009508133 0.08612747 -0.024909414 0.10994182 -0.13000424 -0.044061042 0.20388825 -0.0027885456 0.07261305 0.06042732 -0.13381992 0.10956984 -0.011963932 -0.06781657 -0.20400262 0.12638354 0.20037334 -0.09849016 -0.02223086 -0.11905039 -0.18008839 0.03583166 -0.20307945 -0.2103618 -0.11056994 0.00900445 0.027847739 -0.014229653
